tree
version=v3
num_class=1
num_tree_per_iteration=1
label_index=0
max_feature_idx=30
objective=binary sigmoid:1
feature_names=RelationshipSatisfaction StandardHours StockOptionLevel TotalWorkingYears TrainingTimesLastYear WorkLifeBalance YearsAtCompany YearsInCurrentRole YearsSinceLastPromotion YearsWithCurrManager WitnessedChangeManager BusinessTravel_Travel_Rarely BusinessTravel_Travel_Frequently BusinessTravel_Non-Travel Department_Research_&_Development Department_Sales Department_Human_Resources EducationField_Life_Sciences EducationField_Medical EducationField_Marketing Gender_Male Gender_Female JobRole_Sales_Executive JobRole_Research_Scientist JobRole_Laboratory_Technician MaritalStatus_Married MaritalStatus_Single MaritalStatus_Divorced Over18_Y OverTime_No OverTime_Yes
feature_infos=[1:4] none [0:3] [0:40] [0:6] [1:4] [0:40] [0:18] [0:15] [0:17] [0:1] [0:1] [0:1] [0:1] [0:1] [0:1] [0:1] [0:1] [0:1] [0:1] [0:1] [0:1] [0:1] [0:1] [0:1] [0:1] [0:1] [0:1] none [0:1] [0:1]
tree_sizes=5153 5476 5752 5578 5773 5470 5491 5365 5980 5473 5682 5493 5907 5602 5392 5802 5629 6201 6007 5924 6565 6148 6259 6877 6656 6680 6894 6754 6759 6604 6556 6768 6670 6656 6781 6497 7070 6538 6802 6177 6544 6895 6603 6606 6519 6680 6399 6810 7282 6627 7232 6854 6543 6935 6839 7058 6943 6915 6622 6728 6942 6637 6989 6863 6524 6962 6654 6517 6646 7418 7293 7193 7513 6976 6651 6848 7103 7534 7093 7078 7029 7013 6576 7087 6928 6443 7650 7891 6494 6922 7361 7565 7332 7461 7354 7243 7204 7036 7324 7242 6606 7177 7258 7027 7462 7390 7144 7170 7188 6932 6834 7727 7040 7239 7492 7091 7082 7481 7402 7213 7542 7390 7326 7312 7826 7023 7160 7663 7081 6981 7331 7110 7241 7569 7111 7877 7334 6992 7639 7224 6761 7565 7678 7156 6902 7367 7350 7014 7147 7488 7427 6948 7486 6709 7366 7132 7677 6718 6715 6950 7589 6924 7294 7184 7436 7394 7444 7401 7194 7306 6852 6877 7208 7433 7218 7624 7440 7431 7002 8005 7269 7458 7331 7233 6976 7352 7254 6991 7944 7792 7142 7344 7726 7578 7599 7477 7342 7369 7488 8193

Tree=0
num_leaves=48
num_cat=0
split_feature=29 2 2 3 30 26 25 7 30 6 8 18 3 6 11 21 8 5 14 20 14 15 18 17 9 0 8 18 9 5 14 6 0 9 18 5 3 0 8 17 3 2 14 9 8 24 6
split_gain=343.169 103.624 86.5167 66.319 50.3412 37.8136 50.0937 20.028 19.5628 20.8319 16.6192 13.9179 10.907 10.7429 9.76886 9.6534 9.58217 8.29278 8.20823 7.59863 6.98412 12.1135 6.91528 6.29709 10.0834 5.64237 4.98624 3.20598 2.66773 2.50941 1.94522 1.9152 2.1479 3.36959 1.26366 0.868767 0.508473 0.504902 0.499359 0.470426 0.597916 0.799999 0.377773 1.06016 0.113089 0.0752913 2.84217e-14
threshold=1.0000000180025095e-35 1.0000000180025095e-35 1.0000000180025095e-35 2.5000000000000004 1.0000000180025095e-35 1.0000000180025095e-35 1.0000000180025095e-35 7.5000000000000009 1.0000000180025095e-35 4.5000000000000009 1.5000000000000002 1.0000000180025095e-35 5.5000000000000009 5.5000000000000009 1.0000000180025095e-35 1.0000000180025095e-35 5.5000000000000009 2.5000000000000004 1.0000000180025095e-35 1.0000000180025095e-35 1.0000000180025095e-35 1.0000000180025095e-35 1.0000000180025095e-35 1.0000000180025095e-35 1.0000000180025095e-35 2.5000000000000004 1.0000000180025095e-35 1.0000000180025095e-35 8.5000000000000018 2.5000000000000004 1.0000000180025095e-35 17.500000000000004 1.5000000000000002 3.5000000000000004 1.0000000180025095e-35 2.5000000000000004 6.5000000000000009 2.5000000000000004 2.5000000000000004 1.0000000180025095e-35 10.500000000000002 1.5000000000000002 1.0000000180025095e-35 1.5000000000000002 1.0000000180025095e-35 1.0000000180025095e-35 4.5000000000000009
decision_type=2 2 2 2 2 2 2 2 2 2 2 2 2 2 2 2 2 2 2 2 2 2 2 2 2 2 2 2 2 2 2 2 2 2 2 2 2 2 2 2 2 2 2 2 2 2 2
left_child=1 8 3 18 -3 6 44 10 46 23 12 15 -6 14 -7 19 25 -16 35 -11 21 -4 -12 27 -25 -8 -14 42 34 -15 -19 32 33 -22 36 -2 -23 -38 -31 40 41 45 -10 -44 -5 -34 -1
right_child=2 4 20 5 7 13 16 -9 9 11 22 -13 26 29 17 -17 -18 30 -20 -21 31 28 -24 24 -26 -27 -28 -29 -30 38 -32 -33 39 -35 -36 -37 37 -39 -40 -41 -42 -43 43 -45 -46 -47 -48
leaf_value=0.23601389432293315 0.2360138943229331 0.23601389432293315 0.02947998652801561 0.2360138943229331 0.072312302633211561 0.053083861704577615 -0.0075614208482467568 -0.16414555202971962 0.23601389432293315 0.23601389432293293 0.14123928860783119 -0.064105690441556423 -0.14127929795242516 -0.079263245227641693 0.035934171146606783 0.021642762348297758 0.069280791675994519 -0.064105690441556423 0.084229276740892464 0.098816369859166503 -0.056410316473236181 -0.084113662759188773 -0.0040817734886584925 0.20841669112619851 0.026406565281067433 -0.1383288135553549 -0.025628820599955172 0.15322228473272914 -0.044097718123923775 -0.16414555202971953 -0.14191447167679444 -0.084113662759189051 -0.10697991683648342 -0.16414555202971956 -0.16414555202971962 0.18599396352885159 -0.10012004061329519 -0.1383288135553549 -0.12984617091377795 -0.16414555202971962 -0.16414555202971962 -0.16414555202971962 0.23601389432293315 0.17884825912969707 0.2160059220053005 -0.12412960739445431 0.23601389432293315
leaf_weight=33.486651688814163 8.246712729334833 8.9964138865470868 7.7469119578599921 6.4974100291728991 5.4978084862232235 8.7465135008096713 5.7477088719606417 8.2467127293348295 18.742528930306435 7.4970115721225818 9.4962146580219251 4.9980077147483817 8.7465135008096677 8.246712729334833 4.9980077147483835 6.9972108006477347 5.9976092576980582 4.9980077147483817 7.2471111863851538 8.7465135008096695 6.4974100291728956 4.9980077147483923 4.9980077147483817 7.2471111863851529 5.2479081004858017 7.746911957859993 6.4974100291728965 7.2471111863851538 4.9980077147483817 8.246712729334833 8.9964138865470886 6.2475096434354773 5.2479081004858035 5.2479081004858017 5.9976092576980582 5.9976092576980582 6.2475096434354764 7.746911957859993 8.7465135008096677 19.742130473256111 8.7465135008096677 4.9980077147483817 8.4966131150722486 5.2479081004858008 4.9980077147483826 4.9980077147483826 16.743325844407082
leaf_count=134 33 36 31 26 22 35 23 33 75 30 38 20 35 33 20 28 24 20 29 35 26 20 20 29 21 31 26 29 20 33 36 25 21 21 24 24 25 31 35 79 35 20 34 21 20 20 67
internal_value=0.039928 0.139386 -0.0489777 0.0141245 0.02069 -0.0259953 0.0617509 -0.0238598 0.187046 0.156479 0.00897307 0.0872821 -0.0484368 -0.0773185 -0.0343641 0.119839 -0.0358893 -0.0746362 0.170872 0.162138 -0.115885 -0.0819936 0.0911286 0.193892 0.131972 -0.0826316 -0.0919857 0.213363 -0.110791 -0.124526 -0.114126 -0.136604 -0.142515 -0.104547 -0.12413 0.214953 -0.111493 -0.121271 -0.146491 -0.152712 -0.143304 -0.131346 0.226779 0.214187 0.227315 -0.115346 0.236014
internal_weight=0 183.177 204.918 105.458 52.4791 83.9665 30.9876 43.4827 130.698 80.4679 35.236 28.2387 20.7417 52.9789 27.7389 23.2407 19.4922 18.9924 21.4914 16.2435 99.4604 37.735 14.4942 52.2292 12.495 13.4946 15.2439 39.7342 29.988 25.2399 13.9944 61.7254 55.4779 11.7453 24.99 14.2443 18.9924 13.9944 16.9932 43.7326 23.9904 15.2439 32.4871 13.7445 11.4954 10.2459 50.23
internal_count=1553 733 820 422 210 336 124 174 523 322 141 113 83 212 111 93 78 76 86 65 398 151 58 209 50 54 61 159 120 101 56 247 222 47 100 57 76 56 68 175 96 61 130 55 46 41 201
is_linear=0
shrinkage=1


Tree=1
num_leaves=51
num_cat=0
split_feature=29 2 2 3 30 26 25 30 6 7 8 18 9 3 21 4 6 14 20 14 15 18 17 9 8 0 6 4 5 18 9 9 6 0 20 18 15 5 6 21 3 14 9 4 8 3 17 3 2 6
split_gain=279.976 85.0644 70.3264 54.0719 41.2316 30.7002 41.0308 16.3776 17.2082 16.3671 13.4954 11.3195 9.05836 8.86316 7.90904 7.79334 7.41749 6.82227 6.34269 5.75072 9.87406 5.63004 5.24686 8.29813 4.09234 3.05751 3.65839 4.33159 2.78771 2.70795 2.19261 1.65987 5.16019 3.14511 1.19369 1.05264 0.803192 0.635096 0.507775 0.497082 0.393543 0.322585 0.900814 0.121348 0.0969411 0.00663005 0.0015242 0.000688489 0.000259479 7.10543e-15
threshold=1.0000000180025095e-35 1.0000000180025095e-35 1.0000000180025095e-35 2.5000000000000004 1.0000000180025095e-35 1.0000000180025095e-35 1.0000000180025095e-35 1.0000000180025095e-35 4.5000000000000009 7.5000000000000009 1.5000000000000002 1.0000000180025095e-35 1.0000000180025095e-35 5.5000000000000009 1.0000000180025095e-35 2.5000000000000004 8.5000000000000018 1.0000000180025095e-35 1.0000000180025095e-35 1.0000000180025095e-35 1.0000000180025095e-35 1.0000000180025095e-35 1.0000000180025095e-35 1.0000000180025095e-35 1.0000000180025095e-35 3.5000000000000004 5.5000000000000009 2.5000000000000004 2.5000000000000004 1.0000000180025095e-35 8.5000000000000018 6.5000000000000009 6.5000000000000009 1.5000000000000002 1.0000000180025095e-35 1.0000000180025095e-35 1.0000000180025095e-35 2.5000000000000004 2.5000000000000004 1.0000000180025095e-35 10.500000000000002 1.0000000180025095e-35 1.5000000000000002 3.5000000000000004 1.0000000180025095e-35 17.500000000000004 1.0000000180025095e-35 7.5000000000000009 1.5000000000000002 1.5000000000000002
decision_type=2 2 2 2 2 2 2 2 2 2 2 2 2 2 2 2 2 2 2 2 2 2 2 2 2 2 2 2 2 2 2 2 2 2 2 2 2 2 2 2 2 2 2 2 2 2 2 2 2 2
left_child=1 7 3 17 -3 6 44 -1 22 10 13 14 -7 -6 18 16 -8 36 -10 20 -4 -12 29 -24 -15 26 27 -14 -28 41 35 32 33 -21 -27 38 -2 -35 -22 -40 -30 49 -43 45 -5 48 47 -39 -33 -9
right_child=2 4 19 5 9 12 15 8 11 -11 21 -13 25 24 -16 -17 -18 -19 -20 31 30 -23 23 -25 -26 34 28 -29 40 -31 -32 43 -34 37 -36 -37 -38 46 39 -41 -42 42 -44 -45 -46 -47 -48 -49 -50 -51
leaf_value=0.1789769629454358 0.18050104393483729 0.1789769629454358 -0.0094014389199417615 0.17897696294543572 0.029173659228961701 -0.017247804157775787 -0.088855778509008221 0.17897696294543572 0.17897696294543558 -0.18486185569014668 0.091618060732624532 -0.093687815822812798 -0.0065523306388372803 -0.16385329273103255 -0.016451837163800241 -0.13854781082537934 0.077837967141573108 0.039928650900206947 0.053112983682569226 -0.097218127136546428 -0.10927471600148826 -0.039591992583243897 0.15329999999813007 -0.012166433867117269 -0.058985410114725093 -0.1927220673564215 -0.084518131470711647 -0.12691845868731866 -0.18550686254954021 0.10254859733132943 -0.075627697005354266 -0.18586038063378807 -0.05499614498873158 -0.15394032054631024 -0.13472498249084311 -0.18486185569014668 0.13237801003144087 -0.18746560182492417 -0.13183669311165258 -0.1708194178167996 -0.14704296675555115 0.1789769629454358 0.12602224417581592 -0.17002417024004435 0.16033885247012788 -0.18981878452582748 -0.18486185569014665 -0.18586038063378815 -0.18486185569014668 0.1789769629454358
leaf_weight=49.556683525443077 7.9052168726921099 8.8758239150047284 7.7483162432909003 6.4103172719478625 5.4928163588047054 9.4767557531595212 5.7368437349796313 7.3965199291706112 7.3965199291706165 8.1946769803762418 9.4527792036533338 4.9948665499687186 6.2398397475481051 8.7064826488494855 6.999180555343627 8.7264116108417493 4.9925125539302826 7.2371561229228965 8.7286747246980667 6.2405974417924872 4.9838611483574011 4.9999791383743277 7.1718360930681211 5.249085009098053 6.4989326298236838 6.9779049158096296 6.4898012876510629 5.7401190549135208 5.7145698070526123 7.2076137363910666 4.9975699186325064 5.4674373865127581 5.228804111480712 9.2002134472131747 7.2214112877845764 5.9597650766372672 6.1793622225522995 5.2258036583662033 8.7201450169086439 5.234568089246749 4.9764813780784607 8.3827225863933545 5.2082402408123007 5.9678896963596335 4.9421274662017822 4.9837578833103171 8.6913240700960159 5.4674373865127563 4.9664708971977234 11.094779893755911
leaf_count=201 32 36 31 26 22 38 23 30 30 33 38 20 25 35 28 35 20 29 35 25 20 20 29 21 26 28 26 23 23 29 20 22 21 37 29 24 25 21 35 21 20 34 21 24 20 20 35 22 20 45
internal_value=0 0.0903417 -0.080355 -0.0233168 -0.0173858 -0.0595537 0.0197851 0.133821 0.10579 -0.0575947 -0.0279251 0.0428285 -0.105815 -0.0797016 0.072316 -0.0683689 -0.011291 0.11884 0.110846 -0.14078 -0.110002 0.0462255 0.140027 0.0833738 -0.119032 -0.125172 -0.106642 -0.064225 -0.136219 0.157937 -0.136075 -0.159637 -0.147627 -0.161535 -0.163226 -0.148208 0.159388 -0.175577 -0.136674 -0.14646 -0.167603 0.17038 0.158684 -0.182132 0.170863 -0.186818 -0.185845 -0.186645 -0.185385 0.178977
internal_weight=0 181.608 204.051 104.967 52.2215 83.6451 30.8082 129.387 79.83 43.3457 35.151 28.1192 52.8369 20.6982 23.1244 19.4558 10.7294 21.3217 16.1252 99.084 37.6442 14.4528 51.7108 12.4209 15.2054 43.3601 29.1608 11.98 17.1809 39.2899 29.8959 61.4397 40.0542 34.8254 14.1993 24.8983 14.0846 28.5848 18.9386 13.9547 10.6911 32.0823 13.591 21.3856 11.3524 15.4177 19.3846 10.6932 10.4339 18.4913
internal_count=1553 733 820 422 210 336 124 523 322 174 141 113 212 83 93 78 43 86 65 398 151 58 209 50 61 174 117 48 69 159 120 247 161 140 57 100 57 115 76 56 43 130 55 86 46 62 78 43 42 75
is_linear=0
shrinkage=0.1


Tree=2
num_leaves=54
num_cat=0
split_feature=29 2 2 3 30 26 25 30 3 7 5 11 0 6 5 3 8 14 6 0 7 21 14 5 0 5 6 9 8 9 26 6 20 6 0 4 17 5 12 0 25 10 6 8 0 4 8 14 3 5 17 0 6
split_gain=231.032 70.8436 58.127 44.4715 34.2686 25.1161 34.0589 14.2405 14.6194 13.7255 12.319 11.9062 11.0287 10.5102 8.07304 7.97906 7.09693 5.8369 5.40797 4.51583 4.35652 4.36537 4.20413 4.02929 3.72296 4.25086 3.34349 3.04218 2.60821 2.44582 2.43774 2.32058 5.88255 1.93889 1.76781 1.67362 1.41043 0.76355 0.748142 0.591714 0.900979 0.580656 0.417625 0.418346 0.168795 0.118604 0.0892337 0.054901 0.0260968 0.00217881 0.000963065 0.000915691 5.68434e-14
threshold=1.0000000180025095e-35 1.0000000180025095e-35 1.0000000180025095e-35 2.5000000000000004 1.0000000180025095e-35 1.0000000180025095e-35 1.0000000180025095e-35 1.0000000180025095e-35 7.5000000000000009 7.5000000000000009 2.5000000000000004 1.0000000180025095e-35 2.5000000000000004 3.5000000000000004 2.5000000000000004 9.5000000000000018 5.5000000000000009 1.0000000180025095e-35 16.500000000000004 2.5000000000000004 1.5000000000000002 1.0000000180025095e-35 1.0000000180025095e-35 2.5000000000000004 1.5000000000000002 2.5000000000000004 4.5000000000000009 8.5000000000000018 3.5000000000000004 3.5000000000000004 1.0000000180025095e-35 7.5000000000000009 1.0000000180025095e-35 4.5000000000000009 2.5000000000000004 2.5000000000000004 1.0000000180025095e-35 2.5000000000000004 1.0000000180025095e-35 2.5000000000000004 1.0000000180025095e-35 1.0000000180025095e-35 5.5000000000000009 2.5000000000000004 3.5000000000000004 2.5000000000000004 1.0000000180025095e-35 1.0000000180025095e-35 3.5000000000000004 2.5000000000000004 1.0000000180025095e-35 2.5000000000000004 2.5000000000000004
decision_type=2 2 2 2 2 2 2 2 2 2 2 2 2 2 2 2 2 2 2 2 2 2 2 2 2 2 2 2 2 2 2 2 2 2 2 2 2 2 2 2 2 2 2 2 2 2 2 2 2 2 2 2 2
left_child=1 7 3 17 -3 6 46 52 20 11 28 23 -12 22 15 33 19 37 24 -8 44 30 -13 -6 25 -4 34 -20 -10 -27 41 38 -33 -7 -16 -15 -14 -2 39 40 -26 -22 -28 -44 48 -34 -5 -41 51 -49 -51 -9 -1
right_child=2 4 18 5 9 14 16 8 10 -11 12 13 36 35 26 -17 -18 -19 27 -21 21 -23 -24 -25 31 29 42 -29 -30 -31 -32 32 45 -35 -36 -37 -38 -39 -40 47 -42 -43 43 -45 -46 -47 -48 49 -50 50 -52 -53 -54
leaf_value=0.16603463413839101 0.16722182179485662 0.16603463413839101 -0.04097758090161488 0.16603463413839092 0.1051809970598622 0.059620872351778986 -0.035342055508238907 0.16840228878096042 0.079464585326074408 -0.17053879886725165 0.086206566605988869 0.05991282999667244 -0.11824306328080203 -0.09527558058012478 -0.045519492522138716 -0.12517822995560732 0.028651631076464609 0.036014433882135176 -0.004033390660485278 -0.1527867044708765 0.17311130540777064 0.019444294460304386 -0.063228912262021778 -0.012801927473547837 -0.11835187135299191 -0.090174557519915544 -0.1226152003334867 -0.11133742407432673 0.16845448721254794 -0.17600242286829629 0.080684187506331606 -0.061934982439815461 -0.15632935704588646 -0.026536205216312322 -0.11779809186051669 -0.17041521619536867 -0.04366545205389389 0.11954461138980801 -0.13174868242267432 -0.18219104596787208 -0.17506574832529556 0.13122745295921898 -0.17212529503211466 -0.14035939680316756 0.14903467417566327 -0.17643158285049015 0.14791999222567329 -0.17385384033564921 0.17624688862778634 -0.1723261170612439 -0.17053239905442222 0.16658135796476911 0.16603463413839101
leaf_weight=20.839804619550705 7.9314441084861773 8.6233674287796003 7.6725017130374917 6.2279875874519366 6.9249241352081281 4.996339678764345 5.7324983179569262 6.5064552724361473 9.0476213246583956 8.0037880986928922 6.5697363913059261 5.9355953633785266 4.9566212445497495 5.9224602133035642 6.2174385190010053 6.6988064348697653 5.979181542992591 7.2221316993236533 4.9453275799751264 7.6337111443281174 6.0782307982444799 4.9007926285266867 5.2025106251239777 4.9735478460788727 5.3679250180721265 6.4356490820646286 4.9452904462814358 5.6730307787656784 5.1786643862724295 6.8587198853492737 8.0714621841907501 9.3320256769657135 5.1348602473735809 5.4733475744724274 7.4249807298183441 5.9346465617418289 5.1925121992826462 5.8267196416854858 7.0826293230056754 8.1319472044706362 5.8580619692802429 7.26771479845047 8.0286229997873324 8.5726040005683881 4.827303707599639 6.8509406298398972 4.8270526528358459 6.1074884086847332 5.0994332432746878 6.8181433975696546 5.3357749581336975 4.7981386184692383 27.307330191135406
leaf_count=87 33 36 31 26 28 20 23 27 37 33 27 24 20 24 25 27 24 29 20 31 25 20 21 20 22 26 20 23 21 28 33 38 21 22 30 24 21 24 29 33 24 30 33 35 20 28 20 25 21 28 22 20 114
internal_value=0 0.0829982 -0.0733413 -0.0212234 -0.015866 -0.0541899 0.0181071 0.123218 0.0969558 -0.0524322 0.0434598 -0.0253413 -0.0147417 -0.0673597 -0.0961679 -0.0399511 -0.061907 0.108815 -0.128734 -0.102417 0.131771 0.104584 0.00239441 0.0558643 -0.136958 -0.100248 -0.123596 -0.0613623 0.111859 -0.134454 0.124066 -0.148617 -0.121468 0.0145796 -0.0848576 -0.132884 -0.0800876 0.14703 -0.161564 -0.167177 -0.147947 0.150303 -0.148123 -0.155722 0.165471 -0.16782 0.158125 -0.175356 0.170308 -0.172313 -0.171539 0.167629 0.166035
internal_weight=0 178.163 201.343 103.738 51.5208 82.7579 30.4004 126.642 78.4947 42.8975 30.9452 34.8937 16.7189 22.9952 52.3574 17.1685 19.3454 20.9803 97.605 13.3662 47.5495 26.3182 11.1381 11.8985 86.9867 20.9669 35.1889 10.6184 14.2263 13.2944 21.4174 66.0198 21.3178 10.4697 13.6424 11.8571 10.1491 13.7582 44.702 37.6193 11.226 13.3459 21.5465 16.6012 21.2313 11.9858 11.055 26.3934 16.404 18.2614 12.1539 11.3046 48.1471
internal_count=1553 733 820 422 210 336 124 523 322 174 126 141 68 93 212 69 78 86 398 54 196 108 45 48 355 85 143 43 58 54 88 270 87 42 55 48 41 57 183 154 46 55 88 68 88 49 46 108 68 75 50 47 201
is_linear=0
shrinkage=0.1


Tree=3
num_leaves=52
num_cat=0
split_feature=29 2 2 3 30 26 25 30 6 7 8 18 9 3 4 21 20 6 14 15 14 17 9 18 8 18 0 4 7 20 9 9 6 0 9 17 20 6 15 5 14 5 4 5 6 6 4 9 17 3 8
split_gain=191.961 59.4927 48.4652 36.8379 28.7645 20.6841 28.5774 12.8863 12.9075 11.7605 10.1088 8.2913 6.97332 6.71216 6.29636 6.07425 5.48448 5.45993 5.10386 8.1 5.10216 4.58718 6.92169 3.99807 3.49659 2.58291 2.42805 2.68296 5.94038 1.97381 6.1267 1.56588 4.09004 2.36729 1.54385 1.19714 1.04784 0.846732 0.739824 0.608269 0.312353 0.787469 0.129214 0.0872924 0.0164284 0.00276038 0.0021963 0.00147302 0.000625473 0.000442057 0.000232449
threshold=1.0000000180025095e-35 1.0000000180025095e-35 1.0000000180025095e-35 2.5000000000000004 1.0000000180025095e-35 1.0000000180025095e-35 1.0000000180025095e-35 1.0000000180025095e-35 4.5000000000000009 7.5000000000000009 1.5000000000000002 1.0000000180025095e-35 1.0000000180025095e-35 5.5000000000000009 2.5000000000000004 1.0000000180025095e-35 1.0000000180025095e-35 8.5000000000000018 1.0000000180025095e-35 1.0000000180025095e-35 1.0000000180025095e-35 1.0000000180025095e-35 1.0000000180025095e-35 1.0000000180025095e-35 1.0000000180025095e-35 1.0000000180025095e-35 3.5000000000000004 2.5000000000000004 3.5000000000000004 1.0000000180025095e-35 6.5000000000000009 6.5000000000000009 6.5000000000000009 1.5000000000000002 3.5000000000000004 1.0000000180025095e-35 1.0000000180025095e-35 8.5000000000000018 1.0000000180025095e-35 2.5000000000000004 1.0000000180025095e-35 2.5000000000000004 3.5000000000000004 2.5000000000000004 11.500000000000002 2.5000000000000004 2.5000000000000004 1.5000000000000002 1.0000000180025095e-35 7.5000000000000009 1.5000000000000002
decision_type=2 2 2 2 2 2 2 2 2 2 2 2 2 2 2 2 2 2 2 2 2 2 2 2 2 2 2 2 2 2 2 2 2 2 2 2 2 2 2 2 2 2 2 2 2 2 2 2 2 2 2
left_child=1 7 3 20 -3 6 43 -1 21 10 13 15 -7 -6 17 16 -10 -8 19 -4 38 25 -23 -12 -15 40 27 28 -14 30 -21 32 33 -20 45 37 -28 -29 -2 -35 46 -42 44 -5 50 -31 47 -9 49 -41 -33
right_child=2 4 18 5 9 12 14 8 11 -11 23 -13 26 24 -16 -17 -18 -19 31 29 -22 22 -24 -25 -26 -27 36 35 -30 34 -32 42 -34 39 -36 -37 -38 -39 -40 48 41 -43 -44 -45 -46 -47 -48 -49 -50 -51 -52
leaf_value=0.15593245130391511 0.15796212546781682 0.15593245130391511 0.0016410794504018366 0.15742966278674528 0.026422723767380408 -0.010183993643219825 -0.072210901484262277 0.15883829777005753 0.16014770071329787 -0.15947904522379008 0.080150372194034245 -0.083011264650145036 0.015438709691008684 -0.14543298302172269 -0.12023452807049793 -0.01758796914998809 0.041131858370715459 0.071575766908528071 -0.081834799248924284 -0.15070269844777459 0.032500343310950988 0.13240058330067778 -0.020456295239133733 -0.030846001985141244 -0.047641165849834383 0.082247767487894086 -0.16811915863029001 -0.12226348508984097 -0.12263104421005566 -0.11027899788799163 -0.00053192364674879429 -0.16115881611689498 -0.04205468557025762 -0.12884497017317251 -0.16790975411519515 -0.15325489758239921 -0.11282944054445486 -0.065058850570134594 0.11050051195648763 -0.16206348738442566 0.15972369555203314 0.10991368105372384 -0.14642892132143173 0.13930796459551378 -0.16861441866872509 -0.10700509666965503 0.15986835957372214 0.15650032221597712 -0.16021470413617839 -0.16074212568004775 -0.16215181043665586
leaf_weight=46.23670694231987 7.4267092943191546 8.281201243400572 7.7281671166419974 5.0961903631687182 5.477658927440646 9.4213101118803007 5.6400977224111575 4.8944262415170687 7.0263448059558913 7.7173938006162635 9.3146942108869535 4.9420597702264777 6.2042565792799014 8.4352693259716016 8.5442727357149106 6.9844811707735053 8.6245116144418716 4.9662565886974335 6.1608244329690924 5.7744809687137622 7.2036981731653205 6.8334760516881925 5.2293837517499924 4.9801767319440833 6.4536248743534079 6.9849873930215827 6.7165822833776456 5.592225715517996 6.2605648338794708 5.2753148376941699 5.1306851804256439 4.7065982371568698 5.1537850052118293 8.7705533802509326 7.6798997968435279 5.5644046366214743 7.000217005610466 4.8157782256603241 5.8882635235786438 4.9609678089618683 7.2421389818191546 5.6502295434474945 5.700526848435401 5.5562570989131927 5.3003597110509864 5.0318550765514374 6.5496390759944907 5.9962869584560394 8.2090504914522171 5.1707123517990112 4.7230382859706879
leaf_count=201 32 36 31 22 22 38 23 21 30 33 38 20 25 35 35 28 35 20 25 24 29 29 21 20 26 29 28 23 26 22 21 20 21 37 32 23 29 20 25 21 31 24 24 24 22 21 28 26 35 22 20
internal_value=0 0.0766945 -0.0674137 -0.0194472 -0.014528 -0.0496388 0.0166826 0.114207 0.0891381 -0.0478375 -0.0229804 0.0343363 -0.087963 -0.0682241 -0.0563496 0.0599572 0.0945632 -0.00488508 -0.118606 -0.0892944 0.100295 0.119743 0.0661354 0.0414804 -0.103045 0.137072 -0.105346 -0.0886781 -0.053908 -0.113618 -0.08005 -0.136843 -0.12495 -0.13779 -0.13397 -0.115813 -0.139903 -0.0957949 0.136973 -0.150505 0.149696 0.137894 -0.159213 0.147977 -0.16416 -0.108681 0.158421 0.157551 -0.160863 -0.161389 -0.161656
internal_weight=0 173.855 197.374 101.897 50.66 81.3784 29.8031 123.195 76.958 42.3788 34.6614 27.5774 51.5753 20.3666 19.1506 22.6353 15.6509 10.6064 95.4768 36.6204 20.5187 49.3806 12.0629 14.2949 14.8889 37.3177 42.154 28.4372 12.4648 28.8922 10.9052 58.8564 38.4259 33.2721 17.9871 15.9724 13.7168 10.408 13.315 27.1113 30.3327 12.8924 20.4305 10.6524 14.73 10.3072 17.4404 10.8907 18.3407 10.1317 9.42964
internal_count=1553 733 820 422 210 336 124 523 322 174 141 113 212 83 78 93 65 43 398 151 86 209 50 58 61 159 174 117 51 120 45 247 161 140 75 66 57 43 57 115 130 55 86 46 62 43 75 47 78 43 40
is_linear=0
shrinkage=0.1


Tree=4
num_leaves=54
num_cat=0
split_feature=29 2 2 3 30 26 25 30 3 7 5 11 6 0 5 3 5 8 14 7 14 20 9 0 21 20 11 14 5 8 26 6 4 14 23 3 0 17 17 5 10 22 3 9 0 9 9 8 3 0 20 23 8
split_gain=160.697 50.4514 40.8804 30.6527 24.3759 17.1012 24.1625 11.8039 11.4839 10.2046 9.84017 9.33755 8.14591 8.10093 6.749 6.05787 5.66247 4.68668 4.52677 3.89314 3.87132 3.61606 10.9986 3.69903 3.57941 3.4608 3.44083 3.1742 2.92408 2.44403 2.0395 1.38464 1.34315 1.19564 1.03267 1.70014 1.89047 1.06298 0.94523 0.751636 0.550891 0.505139 0.24817 0.256643 0.173989 0.132098 0.128808 0.0960275 0.0306949 0.0164454 0.0144676 0.0020499 0.00122143
threshold=1.0000000180025095e-35 1.0000000180025095e-35 1.0000000180025095e-35 2.5000000000000004 1.0000000180025095e-35 1.0000000180025095e-35 1.0000000180025095e-35 1.0000000180025095e-35 7.5000000000000009 7.5000000000000009 2.5000000000000004 1.0000000180025095e-35 3.5000000000000004 2.5000000000000004 2.5000000000000004 9.5000000000000018 2.5000000000000004 9.5000000000000018 1.0000000180025095e-35 1.5000000000000002 1.0000000180025095e-35 1.0000000180025095e-35 4.5000000000000009 1.5000000000000002 1.0000000180025095e-35 1.0000000180025095e-35 1.0000000180025095e-35 1.0000000180025095e-35 2.5000000000000004 3.5000000000000004 1.0000000180025095e-35 4.5000000000000009 2.5000000000000004 1.0000000180025095e-35 1.0000000180025095e-35 10.500000000000002 1.5000000000000002 1.0000000180025095e-35 1.0000000180025095e-35 2.5000000000000004 1.0000000180025095e-35 1.0000000180025095e-35 7.5000000000000009 6.5000000000000009 3.5000000000000004 2.5000000000000004 7.5000000000000009 1.0000000180025095e-35 3.5000000000000004 2.5000000000000004 1.0000000180025095e-35 1.0000000180025095e-35 1.0000000180025095e-35
decision_type=2 2 2 2 2 2 2 2 2 2 2 2 2 2 2 2 2 2 2 2 2 2 2 2 2 2 2 2 2 2 2 2 2 2 2 2 2 2 2 2 2 2 2 2 2 2 2 2 2 2 2 2 2
left_child=1 7 3 18 -3 6 47 -1 19 11 29 28 27 -12 15 31 -8 20 39 44 21 22 -4 -23 30 -18 -16 -13 -6 -10 40 -7 -14 -28 35 36 -22 45 -15 -2 -21 -25 -35 -44 48 -38 50 -5 51 -36 -37 -9 -43
right_child=2 4 17 5 9 14 16 8 10 -11 13 12 32 38 26 -17 25 -19 -20 24 34 23 -24 41 -26 -27 33 -29 -30 -31 -32 -33 -34 42 49 46 37 -39 -40 -41 -42 52 43 -45 -46 -47 -48 -49 -50 -51 -52 -53 -54
leaf_value=0.14785675125702472 0.1495489126471764 0.14785675125702472 -0.14567921358706984 0.14825705955837284 0.093909524944514655 0.056217309282466724 0.030622036410433574 0.14881238853091935 0.065276285059514272 -0.15071110291800283 0.071228285834912461 0.053218938241705732 -0.083575678212242155 -0.10493260124587354 -0.055598623990419531 -0.10507514356733694 -0.021020092044237468 -0.024742575224335164 0.029338585993371708 0.15502695056739155 -0.062517192331260338 -0.048914803473962917 0.038885520909155889 -0.11811423249351156 0.010943889873052342 -0.12743132168466684 -0.09753821836521126 -0.054482169049632712 -0.0071998134550943053 0.15289020983469079 0.066841830667577373 -0.016818256973836845 -0.15188316283997319 -0.12519049034980173 -0.16086744860737365 -0.1607248228544752 -0.1144951416832518 -0.15357492242145912 -0.04355407689013073 0.10058912200439013 0.11285678279751366 -0.15566242071807301 -0.1671912041357444 -0.13558007709235459 0.13066981420663601 -0.091012310004149194 -0.13764329554971763 0.12869064338601865 0.15970491775878748 -0.15371530337250477 -0.15319026639080796 0.15164440020339229 -0.15796377747393134
leaf_weight=44.000432521104813 7.3039043843746203 7.8806744813919059 6.1025042384862882 5.7080442309379595 6.79444672167301 4.9832982867956179 5.8246959149837521 5.9477305114269274 8.7459355741739291 7.3676080405712119 6.3062634319067028 5.8558553159236926 5.8029500097036344 4.8805731385946256 9.5231271982192975 6.4679084271192542 4.8629297018051121 6.0123220533132544 7.1831290423870078 5.6709612160921141 6.6721974611282375 5.9217811971902874 6.856531947851181 5.3140062093734715 4.8025972694158545 8.2269847095012665 8.9648150056600571 5.1371020823717117 4.939763993024826 5.0065042525529853 7.8064274042844763 5.418016105890274 5.7123298794031143 4.9749577492475519 5.1264529377222052 4.6436795741319639 5.0153645873069781 7.4723775684833518 5.1634918302297592 5.49452143907547 6.8272671401500711 4.5844320207834244 5.4826778620481473 4.8316829651594162 4.4907087236642829 4.5858423113822937 5.5089174658060065 4.4744569063186646 4.7822183668613425 8.6220475733280164 5.6483228653669357 4.4818585067987442 4.640766829252243
leaf_count=201 33 36 26 26 28 20 24 27 37 33 27 24 24 20 40 27 20 25 29 25 28 25 28 22 20 34 38 21 20 21 33 22 24 21 22 20 22 33 21 24 30 20 23 21 20 20 24 20 21 38 25 20 20
internal_value=0 0.0714359 -0.0623261 -0.0178837 -0.0134066 -0.045636 0.0154602 0.106747 0.0826004 -0.0439488 0.034831 -0.0209778 -0.0586821 -0.0176044 -0.0807367 -0.029082 -0.051401 -0.110122 0.0928718 0.114691 -0.116042 -0.0893598 -0.0480274 -0.115538 0.0885804 -0.0878993 -0.106534 0.0028893 0.0513454 0.0971717 0.106944 0.0181733 -0.117461 -0.126534 -0.132774 -0.124566 -0.107653 -0.125291 -0.0733789 0.12853 0.131991 -0.142673 -0.143535 -0.152383 0.147965 -0.103279 -0.149984 0.139659 0.153071 -0.156382 -0.15659 0.150029 -0.15682
internal_weight=0 168.404 192.453 99.7251 49.4907 79.7436 29.0971 118.913 74.9125 41.6101 30.1028 34.2424 22.5082 16.3503 50.6465 16.8692 18.9146 92.7275 19.9816 44.8098 86.7152 33.42 12.959 20.461 25.1073 13.0899 33.7773 10.993 11.7342 13.7524 20.3047 10.4013 11.5153 24.2541 53.2952 39.5467 23.7458 17.0736 10.0441 12.7984 12.4982 14.5392 15.2893 10.3144 19.7025 9.60121 15.8009 10.1825 15.2118 13.7485 10.292 10.4296 9.2252
internal_count=1553 733 820 422 210 336 124 523 322 174 126 141 93 68 212 69 78 398 86 196 373 141 54 87 108 54 143 45 48 58 88 42 48 103 232 172 103 75 41 57 55 62 65 44 88 42 69 46 68 60 45 47 40
is_linear=0
shrinkage=0.1


Tree=5
num_leaves=51
num_cat=0
split_feature=29 2 2 3 30 26 25 30 6 3 0 10 11 6 11 4 8 3 5 5 14 15 17 9 6 14 3 18 18 3 14 9 5 9 9 4 24 15 7 21 8 3 4 8 26 4 0 6 3 8
split_gain=134.946 42.9539 34.695 25.5833 20.7855 14.1952 20.5462 11.079 10.071 9.12958 6.38196 6.37189 8.29894 6.16462 7.03876 5.17597 5.06157 7.47221 4.46357 4.34656 4.22563 6.76104 4.20818 5.93245 4.13406 4.06107 3.55593 2.5971 1.89936 1.71967 1.69542 1.6876 1.6197 1.56661 3.68066 3.6935 1.20386 0.742547 0.692332 0.530671 0.436502 0.416028 0.126319 0.0965373 0.0703024 0.149547 0.0248101 0.0135794 0.0104487 0.000446672
threshold=1.0000000180025095e-35 1.0000000180025095e-35 1.0000000180025095e-35 2.5000000000000004 1.0000000180025095e-35 1.0000000180025095e-35 1.0000000180025095e-35 1.0000000180025095e-35 4.5000000000000009 20.500000000000004 3.5000000000000004 1.0000000180025095e-35 1.0000000180025095e-35 5.5000000000000009 1.0000000180025095e-35 2.5000000000000004 4.5000000000000009 8.5000000000000018 2.5000000000000004 2.5000000000000004 1.0000000180025095e-35 1.0000000180025095e-35 1.0000000180025095e-35 1.0000000180025095e-35 8.5000000000000018 1.0000000180025095e-35 8.5000000000000018 1.0000000180025095e-35 1.0000000180025095e-35 11.500000000000002 1.0000000180025095e-35 3.5000000000000004 2.5000000000000004 6.5000000000000009 2.5000000000000004 2.5000000000000004 1.0000000180025095e-35 1.0000000180025095e-35 5.5000000000000009 1.0000000180025095e-35 2.5000000000000004 6.5000000000000009 3.5000000000000004 1.0000000180025095e-35 1.0000000180025095e-35 2.5000000000000004 2.5000000000000004 11.500000000000002 6.5000000000000009 1.5000000000000002
decision_type=2 2 2 2 2 2 2 2 2 2 2 2 2 2 2 2 2 2 2 2 2 2 2 2 2 2 2 2 2 2 2 2 2 2 2 2 2 2 2 2 2 2 2 2 2 2 2 2 2 2
left_child=1 7 3 25 -3 6 43 -1 22 11 16 -6 19 14 -7 24 17 -10 -16 -13 21 -4 27 -24 -8 37 -14 39 29 31 -20 41 -15 34 36 -36 46 -2 -28 44 -34 -23 47 -5 48 -46 -22 49 -9 -35
right_child=2 4 20 5 9 13 15 8 10 -11 -12 12 26 32 18 -17 -18 -19 30 -21 33 28 23 -25 -26 -27 38 -29 -30 -31 -32 -33 40 42 35 -37 -38 -39 -40 -41 -42 -43 -44 -45 45 -47 -48 -49 -50 -51
leaf_value=0.14127906666753129 0.14353067114291806 0.14127906666753129 0.0073052465126091804 0.14160790888040972 0.052596341696838744 0.032825388659148268 -0.059511565686040761 0.14370225228590183 0.089480472186213716 -0.15867433050162891 -0.046800656032336185 0.095652287429136937 -0.03581638943874349 -0.0752984707063864 0.0039548801498996205 -0.10582498658609651 0.13670745391484082 -0.06490557124809325 -0.059991446028725526 -0.037730945875654343 -0.15453806929235417 -0.067465475179774956 0.11742785455486382 -0.026631193857626037 0.066464429685521964 0.026489216077704821 -0.10133104792405195 0.066285669620669327 -0.1500088376228296 -0.12325078537065666 -0.13487870264261137 -0.015243941152799929 -0.14901514567580837 -0.14536123992882813 -0.016777049922532702 -0.12138923645840921 -0.10164998837739501 0.093999490701242916 -0.15535798792565528 0.10300210361875545 -0.11505049348989718 -0.10980472180053867 -0.13025663855447431 0.1214902866242482 0.12204959889556388 0.14562839261133786 -0.14619115270058841 -0.15265553330105092 0.14945367438934762 -0.14680043448314381
leaf_weight=41.569067090749741 6.7449421882629412 7.4452060461044303 7.6854381114244452 5.3945664465427416 8.7288143187761289 8.6081855446100253 5.5125157386064547 6.1238512396812474 7.4664129316806811 5.6271734684705725 8.0288223624229449 4.7633579671382922 7.2108846455812481 7.8244840204715738 4.9316983520984659 8.2809294611215574 5.8702199906110755 5.4039547294378281 4.7462291419506064 5.0155836343765259 6.750865042209627 4.5649572759866768 6.3578382581472379 5.193841353058815 4.9388144612312317 7.1613922864198676 4.63664563000202 6.6636345386505118 5.7349493801593772 7.6886480003595343 8.327361211180687 4.6604126542806616 7.262349396944046 4.2874822467565554 7.0826643556356412 6.4471728056669235 7.9820655137300482 5.4904168993234634 4.8559614717960358 4.197859674692153 7.8997624665498734 4.7208386808633804 5.2833739519119254 4.2759907245635986 4.629150003194809 6.4209077209234238 7.5364460647106171 4.9508339911699286 6.5236478447914124 4.338837742805481
leaf_count=201 32 36 31 26 36 35 23 29 32 25 33 20 30 33 20 35 25 23 20 21 30 20 29 21 20 29 20 29 26 33 36 20 33 20 31 29 36 25 22 19 35 21 24 20 22 30 35 22 30 20
internal_value=0 0.0667123 -0.0578046 -0.0164776 -0.0123865 -0.0420346 0.0143392 0.100082 0.0765848 -0.0404011 0.0277967 -0.0214996 -0.0459223 -0.0743162 -0.0415521 -0.0467713 0.0597556 0.0246575 -0.0771114 0.0272405 -0.102671 -0.0755713 0.104909 0.0526563 1.88535e-05 0.0862981 -0.0887549 0.122374 -0.0988431 -0.0852801 -0.107692 -0.0643466 -0.11225 -0.120052 -0.107763 -0.0666263 -0.132756 0.121304 -0.128969 0.135773 -0.131319 -0.0889905 -0.143376 0.132713 0.141578 0.135751 -0.150135 -0.148481 0.146669 -0.146085
internal_weight=0 162.733 187.115 97.3996 48.2836 78.0029 28.4028 114.449 72.8801 40.8384 26.7694 35.2112 26.4824 49.6001 26.6135 18.7323 18.7406 12.8704 18.0053 9.77894 89.715 35.0552 46.1107 11.5517 10.4513 19.3968 16.7035 34.5591 27.3698 21.6349 13.0736 13.9462 22.9866 54.6597 35.7992 13.5298 22.2694 12.2354 9.49261 27.8954 15.1621 9.2858 18.8605 9.67056 23.6976 11.0501 14.2873 13.5772 12.6475 8.62632
internal_count=1553 733 820 422 210 336 124 523 322 174 113 149 113 212 111 78 80 55 76 41 398 151 209 50 43 86 72 159 120 94 56 61 101 247 161 60 101 57 42 130 68 41 86 46 111 52 65 62 59 40
is_linear=0
shrinkage=0.1


Tree=6
num_leaves=51
num_cat=0
split_feature=29 2 2 3 30 26 25 30 25 26 3 18 7 8 9 17 14 3 6 14 14 0 5 8 9 4 9 0 8 6 6 20 23 5 11 12 5 0 25 6 3 4 8 8 14 17 3 0 17 4
split_gain=113.765 36.7614 29.5099 21.4332 17.823 11.8322 17.5786 10.5046 9.13916 11.1244 9.75288 11.2792 8.09381 7.09781 5.63419 5.4317 4.87706 4.7985 4.39728 3.66934 3.25574 3.16623 3.68757 2.92945 2.41779 2.26532 2.22037 2.18138 2.14684 6.9792 2.01794 4.64134 1.7827 1.17176 1.06785 0.790386 0.780941 0.635567 0.940571 0.607853 0.132015 0.12951 0.12608 0.0989809 0.0710849 0.0456429 0.0228712 0.00613029 0.00244116 0.000448461
threshold=1.0000000180025095e-35 1.0000000180025095e-35 1.0000000180025095e-35 2.5000000000000004 1.0000000180025095e-35 1.0000000180025095e-35 1.0000000180025095e-35 1.0000000180025095e-35 1.0000000180025095e-35 1.0000000180025095e-35 4.5000000000000009 1.0000000180025095e-35 7.5000000000000009 1.5000000000000002 1.0000000180025095e-35 1.0000000180025095e-35 1.0000000180025095e-35 5.5000000000000009 16.500000000000004 1.0000000180025095e-35 1.0000000180025095e-35 1.5000000000000002 2.5000000000000004 1.0000000180025095e-35 3.5000000000000004 2.5000000000000004 8.5000000000000018 3.5000000000000004 1.0000000180025095e-35 5.5000000000000009 7.5000000000000009 1.0000000180025095e-35 1.0000000180025095e-35 2.5000000000000004 1.0000000180025095e-35 1.0000000180025095e-35 2.5000000000000004 2.5000000000000004 1.0000000180025095e-35 8.5000000000000018 7.5000000000000009 2.5000000000000004 1.0000000180025095e-35 1.0000000180025095e-35 1.0000000180025095e-35 1.0000000180025095e-35 1.5000000000000002 3.5000000000000004 1.0000000180025095e-35 2.5000000000000004
decision_type=2 2 2 2 2 2 2 2 2 2 2 2 2 2 2 2 2 2 2 2 2 2 2 2 2 2 2 2 2 2 2 2 2 2 2 2 2 2 2 2 2 2 2 2 2 2 2 2 2 2
left_child=1 7 3 19 -3 6 43 -1 9 40 32 15 13 17 -7 42 -8 -6 21 36 -15 22 -4 -19 -24 -18 -20 -17 29 -16 35 -32 46 -30 -35 37 -2 38 -23 -36 45 -33 -12 -5 -39 47 -11 -9 49 -46
right_child=2 4 18 5 12 14 16 8 -10 10 11 -13 -14 20 28 27 25 23 26 -21 -22 30 24 -25 -26 -27 -28 -29 33 -31 31 41 -34 34 39 -37 -38 44 -40 -41 -42 -43 -44 -45 48 -47 -48 -49 -50 -51
leaf_value=0.13584042002934058 0.13780294523526518 0.13584042002934058 -0.012726235573708842 0.13611422912438406 0.023826746111220716 0.0018079515720276545 0.013740682918983555 0.14002712156604186 -0.022642289770588339 0.13729816943560752 0.089933167494666941 -0.12949492528060397 -0.13838123072240238 0.087493018261155978 0.026057475564991352 -0.048683964043178603 -0.042415110026621905 -0.12770208873315084 0.01594853747117159 0.023918391942136234 -0.0094054257168250666 -0.081618980838443017 -0.057956806031460688 -0.036069235865565423 -0.14756078422401092 -0.1371699877067187 -0.078836849279334653 0.043299226870361397 -0.071756053307499221 -0.12145592343524601 -0.035148118667586235 -0.12168727952924877 0.067638337501890342 -0.077296069048773564 -0.1496326788994074 -0.096239426671455783 0.085617350845587081 -0.15263030583640816 -0.14404828869064554 -0.10458540062912879 0.12932173835307373 -0.1444058513984213 0.11333598401731493 0.11517390508621986 -0.14221477615803288 0.15419124683330671 0.14707638162528067 0.14486461903059711 -0.13902116679543247 -0.14082938961314986
leaf_weight=39.040120214223862 6.5517524629831332 6.9922603368759146 7.2481515109539041 5.0678706765174883 5.4314069896936443 9.184649243950842 8.3412430882453918 6.8207225650548953 9.04680287837982 5.1398821473121625 4.5549423098564183 4.5118336677551261 6.6016872823238364 6.7148174792528135 6.0828625410795194 5.2939571142196655 5.0666864663362503 7.81233002245426 4.7554918825626356 7.1392156183719626 7.170108824968338 4.6746580153703672 5.9908459037542343 6.3042158335447311 6.0549852550029755 5.0257086008787155 5.14543317258358 5.0257641077041626 8.7932324409484881 6.7847142368555069 8.6376451402902603 4.3924464881420135 4.8801395148038855 4.9821045249700555 7.6528827548027039 6.1627468913793555 5.0995949506759644 7.2688190788030633 4.988828033208847 4.9219805151224136 7.9315933883190146 5.8526125550270081 4.6542213708162308 4.0701644122600555 5.4113869518041593 4.1408665031194678 4.4743676483631134 4.2531179040670395 5.8500650227069864 4.1122100055217743
leaf_count=201 33 36 31 26 22 38 35 34 39 26 21 19 33 28 26 22 21 35 20 29 30 22 26 26 28 22 23 21 37 31 38 21 23 22 35 29 24 33 24 23 36 28 21 20 26 19 21 20 29 20
internal_value=0 0.0625092 -0.0538105 -0.0152562 -0.0114676 -0.0389076 0.0133804 0.0942022 0.071219 0.0849856 0.0520722 0.0130093 -0.0371957 -0.0172155 -0.0686926 0.0459326 -0.0428383 -0.0560481 -0.0960259 0.0803714 0.0374551 -0.104127 -0.0690853 -0.0867804 -0.102997 -0.0896002 -0.0333107 -0.00388762 -0.0852035 -0.0517222 -0.115916 -0.0891426 0.116863 -0.101553 -0.116477 -0.129058 0.114962 -0.135319 -0.113848 -0.132001 0.139782 -0.134666 0.101761 0.126787 -0.144482 0.145234 0.141849 0.141885 -0.140629 -0.141617
internal_weight=0 156.795 181.311 94.7647 47.0268 75.9741 27.5717 109.768 70.7282 61.6814 38.5351 24.0407 40.0346 33.4329 48.4024 19.5289 18.4336 19.548 86.5463 18.7906 13.8849 76.6454 19.294 14.1165 12.0458 10.0924 9.90093 10.3197 39.2178 12.8676 57.3514 18.8827 14.4944 26.3502 17.557 38.4687 11.6513 32.306 9.66349 12.5749 23.1463 10.2451 9.20916 9.13804 22.6425 15.2147 9.61425 11.0738 15.3737 9.5236
internal_count=1553 733 820 422 210 336 124 523 322 283 174 104 174 141 212 85 78 83 398 86 58 355 85 61 54 43 43 43 174 57 270 87 70 117 80 183 57 154 46 58 109 49 42 46 108 73 47 54 75 46
is_linear=0
shrinkage=0.1


Tree=7
num_leaves=50
num_cat=0
split_feature=29 30 25 2 27 5 26 0 6 10 18 3 14 6 6 0 6 23 27 25 6 20 9 14 17 0 3 6 9 8 26 9 0 3 9 6 15 3 3 4 6 11 6 8 14 7 8 9 3
split_gain=96.1208 31.6817 25.6666 25.2168 23.5017 18.8854 14.4658 11.5217 10.2227 9.21377 8.77177 8.66909 7.90314 8.09159 7.58096 5.44172 5.10227 4.28214 4.21763 42.4007 4.09902 3.81694 6.75368 4.84345 3.71677 3.14095 3.07035 2.36681 5.20327 2.31774 2.29905 2.46805 1.36089 1.32592 0.898914 0.840132 0.725442 0.690646 0.51946 0.501409 0.280036 0.123938 0.122583 0.12788 0.0555929 0.0154295 0.00943061 0.0044771 0.00315282
threshold=1.0000000180025095e-35 1.0000000180025095e-35 1.0000000180025095e-35 1.0000000180025095e-35 1.0000000180025095e-35 2.5000000000000004 1.0000000180025095e-35 3.5000000000000004 4.5000000000000009 1.0000000180025095e-35 1.0000000180025095e-35 13.500000000000002 1.0000000180025095e-35 1.5000000000000002 3.5000000000000004 2.5000000000000004 1.5000000000000002 1.0000000180025095e-35 1.0000000180025095e-35 1.0000000180025095e-35 4.5000000000000009 1.0000000180025095e-35 4.5000000000000009 1.0000000180025095e-35 1.0000000180025095e-35 3.5000000000000004 8.5000000000000018 8.5000000000000018 7.5000000000000009 1.0000000180025095e-35 1.0000000180025095e-35 1.0000000180025095e-35 2.5000000000000004 10.500000000000002 2.5000000000000004 4.5000000000000009 1.0000000180025095e-35 8.5000000000000018 19.500000000000004 2.5000000000000004 15.500000000000002 1.0000000180025095e-35 2.5000000000000004 1.0000000180025095e-35 1.0000000180025095e-35 1.5000000000000002 2.5000000000000004 6.5000000000000009 7.5000000000000009
decision_type=2 2 2 2 2 2 2 2 2 2 2 2 2 2 2 2 2 2 2 2 2 2 2 2 2 2 2 2 2 2 2 2 2 2 2 2 2 2 2 2 2 2 2 2 2 2 2 2 2
left_child=1 -1 4 5 6 7 42 12 10 -4 15 16 30 -14 -6 24 41 20 19 -5 -18 22 37 -24 -7 26 -11 32 -29 -17 -2 -32 -10 -16 36 48 39 -21 46 -23 -30 -8 45 -44 -36 -3 47 -37 -20
right_child=3 2 9 18 14 8 11 -9 27 25 -12 -13 13 -15 33 29 17 -19 35 21 -22 34 23 -25 -26 -27 -28 28 40 -31 31 -33 -34 -35 44 38 -38 -39 -40 -41 -42 -43 43 -45 -46 -47 -48 -49 -50
leaf_value=0.13128804425588841 0.15530399681050236 0.13554785336028369 0.060962876438436543 0.22372519555228668 0.037427067492527485 0.12686275434056446 0.13483328609137257 -0.090476574457894435 -0.08597811559854536 -0.010962718599109817 -0.11523608935317001 -0.058685298553805623 0.10273392526538579 -0.05429313027781496 -0.069891881484363219 0.012769693961950929 0.12162400748530622 -0.03738459325022802 -0.096398635686126 -0.095092668710171441 0.018431380918628011 -0.14280221498512893 0.047995559260553843 -0.080199488565532828 0.013962592852347753 -0.13389575322436345 -0.097436833510679652 0.0083923485760850937 -0.13157067425545996 -0.082969601490700082 0.13968840099999141 0.041324774656943952 -0.15143251994877141 -0.14405579015436867 -0.15074486880195972 -0.14060209868453488 -0.072238195202406263 -0.1466735956403713 -0.10243836008638635 -0.097322216578351772 -0.096094547787022228 0.11236095737893724 0.14365368052463678 0.16294472729282816 -0.13776213450572378 0.14307036029795456 -0.14463432465931861 -0.13652535120418693 -0.092547034762524141
leaf_weight=43.02059318125248 6.8158462196588525 5.9522307664155978 5.9845056980848339 4.4076669812202445 6.2475690096616736 5.5808764398098045 6.6553549617528933 5.6011373549699774 5.3789277225732821 8.2347485423088127 5.9917806535959235 6.2970231771469107 5.4644853025674847 8.2149024903774244 5.2766436338424665 5.3823099732398969 7.3382140398025539 5.2062164098024359 4.292438820004465 4.2891033589839953 8.0962330400943738 5.3075937926769274 5.8110489100217801 5.9802482128143311 6.1064810752868652 7.045431748032569 8.1892694830894452 5.707741141319274 4.4741171449422819 4.7692029625177383 4.2661138027906418 6.3443078398704529 7.7576861381530762 4.4382698684930801 5.7886214107274991 7.2873371094465274 4.1770870536565772 6.5753460228443146 4.6216019839048377 4.4620022177696228 4.4263640642166138 3.8878635466098785 6.97097100317478 6.7769895493984222 7.6666039079427719 5.0315150320529938 4.1865944415330878 4.2735878676176071 4.2094987034797668
leaf_count=237 33 31 26 18 27 26 35 25 25 35 27 27 23 36 23 24 35 22 21 21 35 26 24 28 27 31 38 27 21 22 20 29 37 22 27 36 20 31 22 22 20 20 34 30 39 25 20 22 21
internal_value=0 0.0587532 0.0297601 -0.0501215 0.059735 -0.0141119 0.0875082 0.0415519 -0.0508771 -0.0497975 -0.00805479 0.0483382 0.065326 0.00843424 -0.048509 0.0213518 0.0699497 0.0410401 -0.0899965 -0.0736175 0.0674937 -0.099799 -0.0694305 -0.0170217 0.067874 -0.0780404 -0.0540801 -0.0938318 -0.0661347 -0.0322088 0.109985 0.0808737 -0.124632 -0.103774 -0.124908 -0.120896 -0.107117 -0.12631 -0.131916 -0.12203 -0.113928 0.126547 0.14687 0.153163 -0.143347 0.138994 -0.140568 -0.139095 -0.0944916
internal_weight=0 150.65 107.629 175.619 78.1751 92.2823 62.2126 36.7068 55.5755 29.454 27.8307 37.4809 31.1057 13.6794 15.9625 21.8389 31.1839 20.6407 83.3364 54.4653 15.4344 50.0577 22.6557 11.7913 11.6874 23.4694 16.424 27.7448 14.6082 10.1515 17.4263 10.6104 13.1366 9.71491 27.4019 28.8711 13.9467 10.8644 20.3691 9.7696 8.90048 10.5432 24.7317 13.748 13.4552 10.9837 15.7475 11.5609 8.50194
internal_count=1553 733 496 820 366 422 294 166 256 130 126 174 141 59 72 99 147 92 398 256 70 238 104 52 53 104 73 130 68 46 82 49 62 45 134 142 68 52 100 48 41 55 120 64 66 56 78 58 42
is_linear=0
shrinkage=0.1


Tree=8
num_leaves=56
num_cat=0
split_feature=29 30 2 2 4 3 5 17 3 3 5 18 0 6 3 0 11 6 27 25 5 7 7 20 9 14 17 8 14 14 8 11 10 6 6 7 9 6 15 3 3 4 4 15 0 0 0 14 21 3 8 2 3 0 0
split_gain=81.4349 28.7819 21.9013 21.5799 15.8192 16.1788 10.2107 7.02986 6.9154 6.90799 6.71487 6.14271 5.37805 10.581 7.07114 4.98963 4.81186 6.73478 3.79712 35.064 3.64299 3.5568 3.53585 3.5127 5.97287 4.01737 3.01232 1.84954 1.84199 1.77839 1.77137 1.34637 1.01084 0.9729 0.956833 0.901632 0.864163 0.803465 0.679852 0.644156 0.519932 0.480113 0.474631 0.234939 0.211084 0.0686332 0.0483474 0.0375435 0.0314102 0.0133249 0.00625038 0.00328763 0.00258838 0.000237771 1.42109e-14
threshold=1.0000000180025095e-35 1.0000000180025095e-35 1.0000000180025095e-35 1.0000000180025095e-35 4.5000000000000009 2.5000000000000004 2.5000000000000004 1.0000000180025095e-35 20.500000000000004 7.5000000000000009 2.5000000000000004 1.0000000180025095e-35 2.5000000000000004 5.5000000000000009 5.5000000000000009 2.5000000000000004 1.0000000180025095e-35 3.5000000000000004 1.0000000180025095e-35 1.0000000180025095e-35 2.5000000000000004 1.5000000000000002 7.5000000000000009 1.0000000180025095e-35 4.5000000000000009 1.0000000180025095e-35 1.0000000180025095e-35 3.5000000000000004 1.0000000180025095e-35 1.0000000180025095e-35 2.5000000000000004 1.0000000180025095e-35 1.0000000180025095e-35 3.5000000000000004 4.5000000000000009 5.5000000000000009 2.5000000000000004 4.5000000000000009 1.0000000180025095e-35 8.5000000000000018 19.500000000000004 2.5000000000000004 2.5000000000000004 1.0000000180025095e-35 3.5000000000000004 2.5000000000000004 1.5000000000000002 1.0000000180025095e-35 1.0000000180025095e-35 8.5000000000000018 2.5000000000000004 1.5000000000000002 7.5000000000000009 2.5000000000000004 2.5000000000000004
decision_type=2 2 2 2 2 2 2 2 2 2 2 2 2 2 2 2 2 2 2 2 2 2 2 2 2 2 2 2 2 2 2 2 2 2 2 2 2 2 2 2 2 2 2 2 2 2 2 2 2 2 2 2 2 2 2
left_child=1 54 4 9 5 28 7 11 16 21 27 31 13 14 -8 -12 20 32 19 -4 -5 44 34 24 39 -26 29 -11 42 43 -19 -7 -18 -31 49 -17 38 52 41 -21 50 -25 -2 -23 48 -6 -15 -38 53 -14 51 -39 -20 -3 -1
right_child=2 3 18 8 45 6 12 -9 -10 10 15 -13 22 46 -16 35 17 30 37 23 -22 26 -24 36 25 -27 -28 -29 -30 33 -32 -33 -34 -35 -36 -37 47 40 -40 -41 -42 -43 -44 -45 -46 -47 -48 -49 -50 -51 -52 -53 -54 -55 -56
leaf_value=0.127438521067649 0.090485352104413164 0.12878560857731616 0.19948615806900799 0.088391832710579044 -0.15070978270270519 0.14056850146253053 -0.043111413457022518 -0.082262220689361509 -0.14325015651470907 0.050673969459711476 0.054239605298563857 -0.024897105222945828 -0.081600595561742359 -0.090007607701245329 0.12069075875500881 -0.094024569003974934 0.050475000133266328 -0.12342612244246631 -0.090600560909348204 -0.089393370450054382 -0.022041175725411765 0.1320511451859239 -0.014236199441730019 -0.13724157258294542 0.042902486987170245 -0.07455429477204982 -0.010014622700277573 0.13064064129292668 0.046201399860373853 0.0814408667210655 -0.041463271864356471 0.07281954512191588 -0.014039198796550892 0.016298976557887399 -0.13312188568449729 -0.033243360221242885 -0.14394619222888042 -0.13545675356790626 -0.067065544421563539 -0.14042364919161701 -0.096272417010816277 -0.091577755034238706 0.13377146463338005 0.098539286152716232 0.10497082448848623 -0.13286074228728434 -0.10523746162975392 -0.13294918184061097 0.14037928504028083 -0.089197908772742446 -0.13872233005124643 -0.13188047923716664 -0.087037684433586768 0.12984220150914258 0.127438521067649
leaf_weight=22.808307185769081 4.5135616511106509 5.0184468924999219 4.4457747787237158 6.178421735763548 4.3472268581390363 4.5371122360229537 4.5217255949974078 4.446926921606063 4.8802428990602484 8.1805333495140058 5.8144262880086908 6.1325481981039038 4.4680133908987099 4.2568891197442991 6.3174630403518677 4.7443254142999631 4.726974830031395 7.6832884848117811 4.1195484995841998 4.115465849637987 5.7833161652088165 4.3591715097427404 5.3749507516622534 4.9868820309638995 5.848644867539404 5.7993973791599274 4.3860836029052725 4.4742325544357309 6.3250625431537619 5.1470726132392883 4.014501541852951 8.298352986574173 4.9951944053173083 4.1342527121305466 7.7769398987293235 5.0260682553052902 5.4720980972051603 6.6366087347269076 4.0558174550533286 6.2004819065332413 4.4356317371129981 4.2774368524551392 5.7732529193162918 4.0223001390695572 3.6136993467807761 4.2706214934587479 4.0842929631471634 7.1750212013721466 3.5616452842950812 4.7766035795211792 3.9411422908306113 4.1955617219209671 4.0374469757080078 3.7001646310091019 17.232943207025528
leaf_count=135 24 29 18 27 20 21 20 19 25 37 27 27 21 20 29 20 20 37 21 21 25 24 25 26 24 28 19 21 26 26 19 38 21 19 39 21 27 35 20 31 22 22 31 20 20 20 20 39 18 22 20 23 21 21 102
internal_value=0 0.0553549 -0.0467601 0.02772 -0.0130122 0.000595415 -0.0219158 0.0309017 -0.0320619 0.0622816 0.0248326 0.0574322 -0.0516611 -0.012797 0.0523583 -0.019108 -0.0158068 -0.0441788 -0.0849427 -0.0691696 0.0349992 0.0901536 -0.0849443 -0.0940883 -0.064653 -0.0155776 0.0641588 0.0789471 0.0886676 0.0825778 -0.0952977 0.0967676 0.017328 0.0524242 -0.107272 -0.0627576 -0.118986 -0.115132 -0.10121 -0.120066 -0.126297 -0.116158 0.114779 0.115969 0.126215 -0.141865 -0.097465 -0.137707 0.132466 -0.0855261 -0.135312 -0.134072 -0.0888371 0.129234 0.127439
internal_weight=0 144.486 169.965 104.444 90.2215 81.6037 64.9918 23.4149 38.2619 66.1824 28.2396 18.968 41.5769 19.1804 10.8392 15.5848 33.3817 21.42 79.743 52.377 11.9617 37.9428 22.3965 47.9312 21.964 11.648 22.0489 12.6548 16.6119 17.6628 11.6978 12.8355 9.72217 9.28133 17.0216 9.77039 25.9673 27.3659 13.3201 10.3159 19.2089 9.26432 10.2868 8.38147 15.894 8.61785 8.34118 12.6471 12.2803 9.24462 14.7733 10.8322 8.157 8.71861 40.0413
internal_count=1553 733 820 496 422 382 301 105 174 322 126 86 196 89 49 68 149 97 398 256 52 196 107 238 104 52 108 58 81 89 56 59 41 45 82 41 134 142 68 52 100 48 55 44 88 40 40 66 68 43 78 58 42 50 237
is_linear=0
shrinkage=0.1


Tree=9
num_leaves=51
num_cat=0
split_feature=29 30 25 2 27 4 3 26 0 5 14 10 3 6 6 9 7 8 27 25 20 20 9 14 26 8 0 3 8 14 6 3 12 9 0 9 9 3 14 4 2 2 0 14 6 6 3 7 14 20
split_gain=69.098 26.3068 19.6831 19.0762 17.8383 13.4443 13.6576 13.1002 9.17299 8.94629 6.95616 6.95026 6.85927 6.2232 5.60349 4.91949 4.60853 4.94456 3.41556 29.3861 3.27854 3.25121 5.31053 3.3354 3.13103 3.11241 2.71046 2.52593 1.95788 1.76279 1.38976 1.26918 0.867558 0.818632 1.34958 0.744218 0.644622 0.614289 0.528819 0.466368 0.29752 0.17426 0.052655 0.0253112 0.0249551 0.0160876 0.00820595 0.00309978 0.00174713 0.00091071
threshold=1.0000000180025095e-35 1.0000000180025095e-35 1.0000000180025095e-35 1.0000000180025095e-35 1.0000000180025095e-35 4.5000000000000009 2.5000000000000004 1.0000000180025095e-35 3.5000000000000004 2.5000000000000004 1.0000000180025095e-35 1.0000000180025095e-35 10.500000000000002 4.5000000000000009 3.5000000000000004 1.0000000180025095e-35 6.5000000000000009 1.0000000180025095e-35 1.0000000180025095e-35 1.0000000180025095e-35 1.0000000180025095e-35 1.0000000180025095e-35 4.5000000000000009 1.0000000180025095e-35 1.0000000180025095e-35 3.5000000000000004 3.5000000000000004 8.5000000000000018 2.5000000000000004 1.0000000180025095e-35 4.5000000000000009 10.500000000000002 1.0000000180025095e-35 5.5000000000000009 2.5000000000000004 5.5000000000000009 1.5000000000000002 8.5000000000000018 1.0000000180025095e-35 2.5000000000000004 1.0000000180025095e-35 1.5000000000000002 2.5000000000000004 1.0000000180025095e-35 2.5000000000000004 10.500000000000002 6.5000000000000009 3.5000000000000004 1.0000000180025095e-35 1.0000000180025095e-35
decision_type=2 2 2 2 2 2 2 2 2 2 2 2 2 2 2 2 2 2 2 2 2 2 2 2 2 2 2 2 2 2 2 2 2 2 2 2 2 2 2 2 2 2 2 2 2 2 2 2 2 2
left_child=1 -1 4 5 7 6 29 40 9 10 28 -4 15 24 -6 49 17 38 19 -5 -15 22 37 -24 -11 30 27 -13 -8 39 -10 -16 36 34 -20 -22 -23 -21 -17 -2 44 -36 -7 -38 48 -35 -46 -45 -3 -9
right_child=3 2 11 18 14 42 8 12 25 13 -12 26 -14 20 31 16 -18 -19 33 21 35 32 23 -25 -26 -27 -28 -29 -30 -31 -32 -33 -34 45 41 -37 43 -39 -40 -41 -42 -43 -44 47 46 -47 -48 -49 -50 -51
leaf_value=0.12415543553878415 0.085445390428558365 0.12814689398203402 0.052523572754441028 0.18191992201390084 0.030867972691983665 -0.14136388770495895 0.070453195121339782 0.12771392175403812 -0.080274943392215678 0.077640843051053204 -0.012335445348146536 -0.0084837212299069802 -0.048537246251076298 -0.024248355362924894 -0.060050889958173918 0.083569693620622901 0.12255730514850921 -0.055989886257584033 -0.060385515657004035 -0.084100997382115461 -0.086137189698449732 -0.08957566852656107 0.038415489917446963 -0.069321151391423849 -0.023338520269288076 -0.0093279688663750384 -0.12336639927137256 -0.088319732403407333 0.1567698058308219 0.041928223071215076 -0.14842280757253037 -0.13541117558629681 -0.076273725719702631 -0.1285043886971001 -0.1309184104728518 -0.14456297608820851 -0.13791326516974298 -0.13521982773367366 0.034381421994849372 0.12957749449968042 0.16358896800369269 -0.1026222917227794 -0.12539636726501482 -0.13126393561517213 0.13354701144750816 -0.1365103385098248 0.13939336759029422 -0.12753470781071422 0.13099631469592626 0.12562707958197236
leaf_weight=37.139132559299469 4.3124271631240827 5.2635699063539558 5.8217618912458446 4.3898544162511817 6.1118297278881064 4.1798368841409665 5.9738911688327789 3.8826911598444003 6.7142414301633853 5.1978600174188632 8.6300118863582611 8.1085627526044863 6.9272929430007926 6.7897219508886311 5.1154448837041837 4.2842267900705355 4.6645135730504981 6.6378834992647162 6.4217368811368969 3.9459651708602923 4.1452321410179138 4.4208216667175355 5.8769707977771741 5.6229061484336853 7.5028239488601685 4.0440594106912604 6.6986356526613227 7.7514466494321814 4.6916109770536423 6.2754015773534766 5.3986518085002899 3.9685701280832291 4.9372494965791693 5.8107080310583097 5.6929780691862089 4.599012553691864 6.1554906070232365 5.8150264471769333 4.4620567560195923 5.3841134011745453 3.8771283775568 3.5234495848417282 4.082158550620079 4.9798196107149124 4.5172205120325071 4.4185788929462433 5.1242502927780151 4.0348780453205109 3.6399097740650177 4.5323728173971176
leaf_count=237 24 31 26 18 27 20 27 23 32 26 39 35 30 33 23 22 21 30 33 21 20 24 24 28 32 20 31 38 22 26 27 22 26 34 32 23 32 31 20 31 17 20 20 28 25 23 26 24 21 28
internal_value=0 0.0521533 0.0257788 -0.0437743 0.0532497 -0.0120524 0.000541131 0.0785915 -0.0201948 0.00193233 0.054413 -0.0448902 0.0407021 -0.0339329 -0.0431642 0.0624205 0.0354866 0.00908655 -0.0804497 -0.0652334 -0.0763839 -0.0889283 -0.0603073 -0.0142627 0.0179881 -0.0852878 -0.07003 -0.0475029 0.108423 0.0832243 -0.110648 -0.0929738 -0.113737 -0.109967 -0.095579 -0.116866 -0.123178 -0.114555 0.0584755 0.10995 0.138396 -0.120101 -0.133475 -0.13297 0.133129 -0.131963 0.136654 -0.129595 0.129312 0.12659
internal_weight=0 138.529 101.389 163.967 73.009 87.9211 79.6591 57.8131 63.6871 47.5302 19.2955 28.3804 35.391 28.2347 15.1958 28.4637 20.0487 15.3842 76.0464 50.179 15.534 45.7891 21.2609 11.4999 12.7007 16.157 22.5586 15.86 10.6655 15.9719 12.1129 9.08402 24.5283 25.8675 15.6382 8.74424 19.591 9.76099 8.74628 9.69654 22.4221 9.21643 8.262 15.1702 18.545 10.2293 9.64147 9.0147 8.90348 8.41506
internal_count=1553 733 496 820 366 422 382 294 301 222 88 130 174 134 72 144 93 72 398 256 76 238 104 52 58 79 104 73 49 81 59 45 134 142 85 43 108 52 42 55 120 52 40 84 103 57 51 52 52 51
is_linear=0
shrinkage=0.1


Tree=10
num_leaves=53
num_cat=0
split_feature=29 30 2 25 27 26 4 5 3 18 6 18 0 14 0 10 0 6 17 27 25 20 9 8 20 3 17 0 3 8 0 23 4 26 0 9 9 0 15 9 4 2 2 8 0 14 3 6 6 5 14 3
split_gain=58.7758 24.0798 16.6793 16.5798 15.178 11.9915 11.4839 11.6101 6.2726 8.01874 6.00327 7.91373 5.88111 6.00394 6.21563 5.74707 5.62147 4.84454 3.63342 3.07762 24.8512 3.0182 4.73994 3.07604 2.5781 4.3568 2.42581 2.34609 2.14834 2.0847 2.03032 1.89904 1.47745 1.19199 1.11993 0.88535 0.808013 1.30086 0.69166 0.657774 0.504364 0.196164 0.173688 0.138283 0.0413474 0.0195368 0.0183684 0.0170324 0.0109131 0.00588105 0.00127468 7.10543e-15
threshold=1.0000000180025095e-35 1.0000000180025095e-35 1.0000000180025095e-35 1.0000000180025095e-35 1.0000000180025095e-35 1.0000000180025095e-35 4.5000000000000009 2.5000000000000004 4.5000000000000009 1.0000000180025095e-35 4.5000000000000009 1.0000000180025095e-35 3.5000000000000004 1.0000000180025095e-35 1.5000000000000002 1.0000000180025095e-35 2.5000000000000004 4.5000000000000009 1.0000000180025095e-35 1.0000000180025095e-35 1.0000000180025095e-35 1.0000000180025095e-35 4.5000000000000009 4.5000000000000009 1.0000000180025095e-35 11.500000000000002 1.0000000180025095e-35 3.5000000000000004 8.5000000000000018 1.0000000180025095e-35 3.5000000000000004 1.0000000180025095e-35 2.5000000000000004 1.0000000180025095e-35 2.5000000000000004 2.5000000000000004 5.5000000000000009 2.5000000000000004 1.0000000180025095e-35 1.5000000000000002 2.5000000000000004 1.0000000180025095e-35 1.5000000000000002 1.0000000180025095e-35 2.5000000000000004 1.0000000180025095e-35 1.5000000000000002 2.5000000000000004 10.500000000000002 2.5000000000000004 1.0000000180025095e-35 16.500000000000004
decision_type=2 2 2 2 2 2 2 2 2 2 2 2 2 2 2 2 2 2 2 2 2 2 2 2 2 2 2 2 2 2 2 2 2 2 2 2 2 2 2 2 2 2 2 2 2 2 2 2 2 2 2 2
left_child=1 51 6 4 5 41 7 12 31 18 11 16 13 33 -15 -5 26 -6 43 20 -4 22 39 -24 25 -12 -9 28 -17 -18 -20 46 -26 -2 -35 38 37 -21 40 -22 -23 47 -39 -10 -8 -37 -7 50 -38 -49 -3 -1
right_child=2 3 19 15 17 8 44 10 9 -11 24 -13 -14 14 -16 27 29 -19 30 36 21 35 23 -25 32 -27 -28 -29 -30 -31 -32 -33 -34 34 -36 45 48 42 -40 -41 -42 -43 -44 -45 -46 -47 -48 49 -50 -51 -52 -53
leaf_value=0.12133511535718487 0.14187374997023025 0.12477664313252589 0.16862143329192922 0.047850319647444128 0.017073722261806711 0.12237069500025946 -0.13328779657249096 0.1398443302368147 0.072288388276081889 -0.11454026925902022 -0.098062980426322277 -0.11149600457352089 -0.060946743084232757 0.099572666141339444 -0.043573608650970173 -0.0076348300512535747 0.022304004972250612 -0.097217699892070131 -0.046854433974358241 -0.05597843763396966 -0.076020357652471837 -0.12944608056362783 0.027013149316507917 -0.08068524839005535 -0.13499288959964215 0.038695862563897787 0.038914579360407202 -0.11490190299484129 -0.081772030571727217 -0.07227471286168663 0.042079982935547218 0.042755425999896651 -0.066859395302292901 0.049007101519110835 0.11961436693158323 -0.13413558852442922 -0.12508665493622032 -0.12715989910384326 -0.05452526565122881 -0.13086927837557899 -0.080017012811404387 0.15444519765538064 -0.098013300610382076 0.098252042458935235 -0.1188054439718205 -0.12567058136017592 0.13223985535973279 0.12983366380220002 -0.13191716223772107 0.13498159988673145 0.12730175650453776 0.12133511535718487
leaf_weight=29.853076219558716 5.8989610075950649 4.8846335858106666 4.2684322893619528 5.7549220174551037 7.4368956983089429 3.8802422732114774 3.9991880804300299 4.4809631705284172 3.9866680651903188 4.3715791851282111 4.627165362238884 4.7977512478828421 4.3732264637947074 5.0321694165468216 7.6367861777544022 8.10908190906048 4.8800461590290052 7.3981126695871353 5.2746750861406326 6.2441232502460506 3.5703668743371981 4.409780830144884 7.1273057609796506 4.2235345989465714 5.9184037744998932 4.6911391466856003 5.0821043252944946 6.4841314107179633 7.5458862930536261 4.4609037041664124 5.0005936175584793 4.1194955706596375 6.8852516710758209 4.5302345752716064 4.4560813903808594 4.8428736031055433 5.393938869237898 5.2955515980720502 3.7445101439952841 5.6408542990684509 3.8812292665243149 3.7048152238130561 3.3303216695785522 4.2256457209587097 3.8878907412290573 6.2388097494840622 3.6691404283046722 5.0512480884790403 4.1300291866064072 3.9580479860305786 3.3841412514448166 4.4924532175064078
leaf_count=206 33 31 18 26 33 26 20 23 21 19 24 23 21 23 33 35 23 39 22 33 20 26 32 20 30 23 23 31 38 22 21 23 36 21 24 27 34 32 20 32 22 17 20 21 20 39 21 29 23 22 21 31
internal_value=0 0.0492597 -0.0410371 0.0240615 0.0499306 0.0739434 -0.0111731 0.000490026 0.0377112 0.00725876 -0.0317653 0.00320268 0.0467843 0.0638826 0.0132848 -0.0411779 0.0323127 -0.0399226 0.0360594 -0.0763902 -0.0616783 -0.0841837 -0.0563115 -0.0130604 -0.0692304 -0.0292141 0.0862072 -0.0643203 -0.0433699 -0.0228634 -0.00357334 0.0973671 -0.0983536 0.106947 0.0840194 -0.108975 -0.105307 -0.090742 -0.0901967 -0.109609 -0.106307 0.133565 -0.115907 0.085648 -0.126149 -0.12937 0.127167 0.129087 -0.128049 0.132095 0.12581 0.121335
internal_weight=0 132.585 157.98 98.24 70.3459 55.5109 85.6383 77.7512 34.528 22.8592 45.8237 23.7018 31.9275 27.5542 12.669 27.894 18.904 14.835 18.4876 72.3417 47.9477 43.6793 20.5621 11.3508 22.122 9.3183 9.56307 22.1391 15.655 9.34095 10.2753 11.6689 12.8037 14.8853 8.98632 23.1172 24.394 14.87 12.0355 9.21122 8.29101 20.9829 8.62587 8.21231 7.88708 11.0817 7.54938 17.2781 9.52397 9.0093 8.26877 34.3455
internal_count=1553 733 820 496 366 294 422 382 174 104 227 114 155 134 56 130 91 72 85 398 256 238 104 52 113 47 46 104 73 45 43 70 66 78 45 134 142 85 68 52 48 120 52 42 40 66 47 103 57 51 52 237
is_linear=0
shrinkage=0.1


Tree=11
num_leaves=51
num_cat=0
split_feature=29 30 13 11 2 21 3 12 17 25 26 25 3 3 5 3 3 7 2 23 13 27 25 20 7 14 20 9 14 11 8 9 6 14 4 8 3 15 8 3 6 3 3 9 3 9 6 14 0 9
split_gain=50.0511 22.0768 14.7857 16.4297 14.6049 14.1842 9.94925 9.46951 9.14694 8.07205 6.7978 11.236 5.01918 3.91938 4.11438 3.53521 3.56723 3.02231 2.9283 2.91829 3.28396 3.08908 18.1971 2.87528 2.78792 2.72027 2.68314 5.34834 2.19811 2.18526 2.0912 1.40506 1.36798 1.18004 1.04259 1.01223 0.879199 0.854273 0.750043 0.72351 0.573189 0.453132 0.178134 0.164338 0.14784 0.0417487 0.0301545 0.00874367 0.0061005 0.00407358
threshold=1.0000000180025095e-35 1.0000000180025095e-35 1.0000000180025095e-35 1.0000000180025095e-35 1.0000000180025095e-35 1.0000000180025095e-35 2.5000000000000004 1.0000000180025095e-35 1.0000000180025095e-35 1.0000000180025095e-35 1.0000000180025095e-35 1.0000000180025095e-35 9.5000000000000018 19.500000000000004 2.5000000000000004 10.500000000000002 15.500000000000002 3.5000000000000004 1.0000000180025095e-35 1.0000000180025095e-35 1.0000000180025095e-35 1.0000000180025095e-35 1.0000000180025095e-35 1.0000000180025095e-35 3.5000000000000004 1.0000000180025095e-35 1.0000000180025095e-35 4.5000000000000009 1.0000000180025095e-35 1.0000000180025095e-35 3.5000000000000004 2.5000000000000004 4.5000000000000009 1.0000000180025095e-35 2.5000000000000004 1.0000000180025095e-35 5.5000000000000009 1.0000000180025095e-35 1.5000000000000002 17.500000000000004 4.5000000000000009 10.500000000000002 7.5000000000000009 2.5000000000000004 7.5000000000000009 1.5000000000000002 1.5000000000000002 1.0000000180025095e-35 2.5000000000000004 4.5000000000000009
decision_type=2 2 2 2 2 2 2 2 2 2 2 2 2 2 2 2 2 2 2 2 2 2 2 2 2 2 2 2 2 2 2 2 2 2 2 2 2 2 2 2 2 2 2 2 2 2 2 2 2 2
left_child=1 -1 3 7 6 8 25 44 9 17 11 43 23 14 24 -13 -17 36 28 20 21 22 -6 -9 -12 37 27 40 -7 -16 -29 34 -23 -31 -28 -10 45 -2 -38 49 -24 -20 -35 -8 46 -5 -3 -33 -21 -34
right_child=4 2 -4 5 19 18 10 12 35 -11 13 15 -14 -15 29 16 -18 -19 41 48 -22 32 26 -25 -26 -27 31 30 -30 33 -32 47 39 42 -36 -37 38 -39 -40 -41 -42 -43 -44 -45 -46 -47 -48 -49 -50 -51
leaf_value=0.11889729583189722 0.12434341910012536 0.12093583950864009 -0.15282866820895433 0.12824926530514066 0.15822843131901101 0.01515168029445039 0.10210867297392412 0.11962168832360578 -0.017248705882183 -0.027718413090605104 0.040924426458799248 -0.084077306341845681 -0.062725571717543213 -0.12707007544616067 -0.018416449615775817 0.071671180232986104 -0.050372807843855852 0.018590604514010511 -0.095668768336640841 -0.12790110975420307 -0.13418694040430534 -0.046799044722155438 -0.073613692115038681 0.014629155936470154 -0.054239510244243665 0.012849637158840535 -0.10220607352419109 0.052807884108964726 -0.083181407205830615 -0.051453843554992752 -0.040851574477627092 -0.12969594304141399 -0.1275422895782817 -0.089480678106114653 -0.029272904283124613 -0.083235515938963237 0.06430946942904836 0.063309337264029208 0.12162303277310896 -0.070865581236662034 -0.12918520098518399 -0.14140320734601866 -0.11688502916086765 0.13159628394902834 0.14621219133657357 0.14272872653225274 0.13206148405692483 -0.12289207943139557 -0.12265373812943051 -0.12319999615771456
leaf_weight=31.681379735469818 4.897053003311159 3.8336027860641497 4.5779900699853888 4.5879955887794583 4.1023453772068015 4.6874106079339999 4.0852084904909161 5.0595904290676099 4.3119130581617338 7.6603098660707465 8.2988900393247587 7.149087771773341 4.3140092194080344 5.879548877477645 7.2991704940795925 4.6513433456420881 4.9370209574699402 4.5080654621124259 6.0358777791261655 3.6457910984754545 6.0649254471063605 4.7912750989198711 3.6596282720565823 5.3838138431310654 4.8938495367765418 6.9380425065755835 3.9383125156164152 5.3523762524127942 4.4138822853565216 6.6267971992492685 4.2984328120946884 3.8250304907560349 4.2654276937246305 3.9404687583446503 3.9020228981971741 5.0441388338804245 5.2057506591081601 4.3129948079586029 4.0673773884773254 3.3956621140241614 3.7661587446928024 3.3792940229177475 5.958971306681633 3.5171839892864227 7.7446719855070105 3.5183720290660858 6.6829411536455154 3.7312722504138947 5.6476112306118011 4.3777150511741638
leaf_count=237 32 27 22 29 18 22 26 26 20 37 35 34 20 30 36 21 23 23 28 22 35 28 22 29 22 29 24 24 19 34 20 23 26 21 22 24 30 25 22 20 22 20 34 20 39 20 39 25 38 29
internal_value=0 0.0466068 0.022503 0.0313783 -0.0384815 -0.000942584 -0.0103463 0.0875852 0.0333461 0.0606312 -0.0272743 0.0149378 0.028013 -0.0512251 -0.0391787 -0.030853 0.00883108 0.0915522 -0.0729847 -0.0725991 -0.0644555 -0.0565365 -0.0402222 0.0654956 0.00562334 0.0601384 -0.0652925 -0.0379983 -0.0325372 -0.0639867 0.0110923 -0.0955649 -0.0919912 -0.0841138 -0.0659083 -0.0528242 0.110478 0.0957616 0.0894483 -0.109977 -0.101798 -0.112084 -0.105977 0.115751 0.135727 0.134534 0.128006 -0.126336 -0.124712 -0.125343
internal_weight=0 126.698 95.017 90.439 152.15 57.4204 83.3856 33.0186 38.9039 29.5479 67.2375 24.3398 14.7574 42.8977 37.0181 16.7375 9.58836 21.8876 18.5165 68.764 59.4706 53.4057 36.5756 10.4434 13.1927 16.1481 32.4732 17.0766 9.10129 23.8254 9.65081 15.3966 16.8301 16.5262 7.84034 9.35605 17.3795 9.21005 9.27313 12.0388 7.42579 9.41517 9.89944 7.60239 18.2612 8.10637 10.5165 7.5563 9.2934 8.64314
internal_count=1553 733 496 474 820 294 422 180 205 161 336 124 75 212 182 78 44 124 89 398 338 303 200 55 57 86 182 88 41 125 44 94 103 89 46 44 101 57 52 75 44 48 55 46 105 49 66 48 60 55
is_linear=0
shrinkage=0.1


Tree=12
num_leaves=55
num_cat=0
split_feature=29 30 2 13 11 21 4 3 12 17 13 25 3 0 5 14 14 26 3 23 13 4 10 14 9 9 0 11 9 20 6 3 8 6 14 14 4 6 9 8 8 3 4 8 20 8 3 9 20 6 0 15 0 3
split_gain=42.6491 20.2997 12.7978 12.3618 14.1378 11.8052 9.4603 9.04432 8.73286 7.64728 7.49174 6.9324 6.12123 6.78025 4.81652 4.52729 4.36492 2.92836 2.86588 2.75534 2.99604 2.7992 2.75809 2.82464 2.91757 3.84704 2.74577 2.43994 2.38781 3.56544 3.04147 2.22258 1.99087 1.64212 1.44077 1.40442 1.24603 1.2441 1.21089 0.881089 0.828698 0.588426 0.5076 0.377944 0.183268 0.157713 0.101563 0.0718495 0.0366444 0.0212917 0.00423057 1.42109e-14 3.55271e-15 1.77636e-15
threshold=1.0000000180025095e-35 1.0000000180025095e-35 1.0000000180025095e-35 1.0000000180025095e-35 1.0000000180025095e-35 1.0000000180025095e-35 4.5000000000000009 2.5000000000000004 1.0000000180025095e-35 1.0000000180025095e-35 1.0000000180025095e-35 1.0000000180025095e-35 19.500000000000004 3.5000000000000004 2.5000000000000004 1.0000000180025095e-35 1.0000000180025095e-35 1.0000000180025095e-35 7.5000000000000009 1.0000000180025095e-35 1.0000000180025095e-35 4.5000000000000009 1.0000000180025095e-35 1.0000000180025095e-35 6.5000000000000009 2.5000000000000004 2.5000000000000004 1.0000000180025095e-35 4.5000000000000009 1.0000000180025095e-35 4.5000000000000009 8.5000000000000018 1.5000000000000002 4.5000000000000009 1.0000000180025095e-35 1.0000000180025095e-35 2.5000000000000004 3.5000000000000004 1.5000000000000002 3.5000000000000004 1.0000000180025095e-35 5.5000000000000009 2.5000000000000004 1.5000000000000002 1.0000000180025095e-35 3.5000000000000004 7.5000000000000009 1.5000000000000002 1.0000000180025095e-35 1.5000000000000002 2.5000000000000004 1.0000000180025095e-35 2.5000000000000004 8.5000000000000018
decision_type=2 2 2 2 2 2 2 2 2 2 2 2 2 2 2 2 2 2 2 2 2 2 2 2 2 2 2 2 2 2 2 2 2 2 2 2 2 2 2 2 2 2 2 2 2 2 2 2 2 2 2 2 2 2
left_child=1 51 6 4 8 9 7 34 46 11 12 18 13 14 15 43 -10 37 41 20 21 22 -4 28 25 38 -7 -19 30 -30 -24 -18 -28 -20 42 -29 -15 -16 -25 -14 -11 47 -2 -9 -23 -26 49 -6 -8 -3 -21 52 -1 -54
right_child=2 3 19 -5 5 26 48 10 16 40 -12 -13 39 36 17 -17 31 27 33 50 -22 44 23 24 45 -27 32 35 29 -31 -32 -33 -34 -35 -36 -37 -38 -39 -40 -41 -42 -43 -44 -45 -46 -47 -48 -49 -50 -51 -52 -53 53 -55
leaf_value=0.11677889064487175 0.072422652894383294 0.11855919639595243 -0.11314646340493689 -0.14135018743309877 0.12502692029050749 -0.020335245413163505 -0.12560090161378734 0.098640769218515612 0.10252037216420336 -0.015519962852401328 -0.1476721766806994 -0.025067224041756903 -0.12048396670605271 -0.10870046213435336 0.084254187268310729 0.010401612343458221 0.030778945228808002 0.030551432175351296 0.087053220486768668 -0.12459684058731627 -0.13020530095829683 -0.12995360478896728 0.012663746005543958 -0.041375107556688905 -0.093994694346113447 0.022894653192236762 -0.13348397905956119 -0.018104705564861646 0.08362589616947666 -0.042038063716040741 -0.10339327201913047 -0.06594787685245769 -0.044945134301496804 -0.00054550410882448614 0.035718808069492181 -0.098366286470370712 -0.037091932186014288 0.0073602656814444611 -0.12420065288446649 -0.054389652945337943 -0.075287452610425715 0.088709839005215577 0.12230716527713524 0.14086534527448202 -0.097329513795012548 -0.12398682250697007 0.14036319133124225 0.14432290515913981 -0.11140351032043785 0.1282797300594388 -0.12005568543755069 0.11677889064487171 0.11677889064487174 0.11677889064487174
leaf_weight=12.549740105867386 3.7403005957603437 3.53473047912121 5.124214954674243 4.460847593843936 4.2528393343091064 7.4128675162792232 3.5846594870090476 4.4713565707206708 4.9018917381763467 4.3129275292158109 4.0343055874109259 7.6253581643104544 3.9828476011753065 3.9568073898553831 3.8258993327617645 7.0797452181577674 5.1868058443069458 4.0614036470651618 4.1431392580270749 3.3817911371588689 5.6468575894832602 3.2360826134681693 4.7166499346494692 3.4376351088285464 2.9854427129030219 6.4535156860947609 6.6103353798389417 3.8914424777030945 5.2361170798540098 3.9694896712899208 4.3320441022515297 4.3828975856304169 4.1241388767957687 4.42609503865242 6.175418719649314 4.9574631750583649 6.2971831783652306 4.6754752695560455 3.6279998421669006 4.0862071812152863 5.0202059000730515 4.6124729886651039 4.486661970615387 4.0307157710194588 3.6800433695316315 4.2480912059545517 7.2843628078699103 3.5325969606637955 3.688784047961235 6.2159749493002892 5.2150362953543663 8.2434567362070101 4.4293200373649597 3.9371733665466309
leaf_count=102 24 27 32 22 29 36 19 22 26 20 20 37 20 22 20 33 28 19 22 22 35 19 27 21 19 36 33 19 22 24 27 21 20 23 26 27 34 23 24 21 24 29 31 21 24 28 39 21 21 39 38 67 36 32
internal_value=0 0.0440694 -0.0361411 0.0210341 0.0293051 -0.00081203 -0.00959304 0.00113741 0.082905 0.0309275 -0.0161131 0.0565826 -0.00651829 0.0072289 0.0271731 0.0694712 0.0257847 -0.00360823 0.0862771 -0.0690874 -0.0610879 -0.0534421 -0.0441719 -0.035111 -0.060349 -0.0329223 -0.0671435 -0.033618 -0.00641868 0.0294392 -0.0428983 -0.0135217 -0.0994677 0.0418076 0.072225 -0.06307 -0.0647242 0.0419651 -0.0839036 -0.0870135 -0.0476683 0.117014 0.0996277 0.118659 -0.112594 -0.111608 0.13143 0.133782 -0.118401 0.124756 -0.121842 0.116779 0.116779 0.116779
internal_weight=0 121.2 146.318 92.0405 87.5796 56.073 81.0267 73.7532 31.5067 37.9256 59.3509 28.5925 55.3165 47.2475 36.9935 15.5818 14.4716 21.4117 20.9671 65.291 56.6942 51.0473 44.1312 39.007 20.7527 13.5192 18.1473 12.9103 18.2543 9.20561 9.04869 9.5697 10.7345 8.56923 14.4024 8.84891 10.254 8.50137 7.06563 8.06905 9.33313 12.3979 8.22696 8.50207 6.91613 7.23353 17.0351 7.78544 7.27344 9.75071 8.59683 29.1597 20.9162 8.36649
internal_count=1553 733 820 496 474 294 422 382 180 205 301 161 281 240 184 76 75 108 124 398 338 303 260 228 128 81 89 65 100 46 54 49 53 45 81 46 56 43 45 41 44 79 55 43 43 47 105 50 40 66 60 237 170 68
is_linear=0
shrinkage=0.1


Tree=13
num_leaves=52
num_cat=0
split_feature=29 30 2 2 18 17 19 6 23 6 3 22 3 5 18 17 5 3 23 13 27 25 4 9 3 8 4 3 3 26 21 21 8 9 6 0 11 6 14 17 9 11 3 6 9 20 14 3 0 20 9
split_gain=36.2967 18.713 11.0823 10.786 8.32418 13.81 21.1896 5.27057 5.23415 5.96481 4.89023 4.17158 4.05719 3.75032 4.75174 3.84802 3.05844 3.88855 2.65159 2.78488 2.58119 15.0904 2.49725 4.62061 2.83183 2.65675 2.31847 2.22472 2.1852 2.68272 2.08803 1.92279 1.88122 1.84882 1.76889 1.7293 1.55887 1.32398 1.09237 1.04872 0.895916 0.892831 0.811324 0.340416 0.310485 0.329873 0.098106 0.00810363 0.00295746 0.00275092 0.00273757
threshold=1.0000000180025095e-35 1.0000000180025095e-35 1.0000000180025095e-35 1.0000000180025095e-35 1.0000000180025095e-35 1.0000000180025095e-35 1.0000000180025095e-35 1.5000000000000002 1.0000000180025095e-35 4.5000000000000009 20.500000000000004 1.0000000180025095e-35 10.500000000000002 1.5000000000000002 1.0000000180025095e-35 1.0000000180025095e-35 2.5000000000000004 15.500000000000002 1.0000000180025095e-35 1.0000000180025095e-35 1.0000000180025095e-35 1.0000000180025095e-35 2.5000000000000004 8.5000000000000018 6.5000000000000009 1.0000000180025095e-35 2.5000000000000004 5.5000000000000009 7.5000000000000009 1.0000000180025095e-35 1.0000000180025095e-35 1.0000000180025095e-35 1.0000000180025095e-35 2.5000000000000004 8.5000000000000018 1.5000000000000002 1.0000000180025095e-35 4.5000000000000009 1.0000000180025095e-35 1.0000000180025095e-35 1.5000000000000002 1.0000000180025095e-35 18.500000000000004 5.5000000000000009 6.5000000000000009 1.0000000180025095e-35 1.0000000180025095e-35 3.5000000000000004 2.5000000000000004 1.0000000180025095e-35 6.5000000000000009
decision_type=2 2 2 2 2 2 2 2 2 2 2 2 2 2 2 2 2 2 2 2 2 2 2 2 2 2 2 2 2 2 2 2 2 2 2 2 2 2 2 2 2 2 2 2 2 2 2 2 2 2 2
left_child=1 -1 4 7 5 6 28 39 9 32 16 41 13 -9 15 30 26 27 19 20 21 -4 25 24 -24 -23 -5 -18 35 -30 44 -29 -7 -17 -26 -2 -37 -22 -11 47 -38 -6 50 -43 45 -15 -27 49 -20 -3 -39
right_child=2 3 18 10 11 8 -8 12 -10 38 -12 -13 -14 14 -16 33 17 -19 48 -21 37 22 23 -25 34 46 -28 31 29 -31 -32 -33 -34 -35 -36 36 40 42 -40 -41 -42 43 -44 -45 -46 -47 -48 -49 -50 -51 -52
leaf_value=0.11492955826489025 0.15543138070473927 0.12128767678265434 0.15016018299284162 0.061951683987590767 -0.060193535573236659 0.062983075056544713 -0.10446078970284199 0.1313228691185932 -0.14274288729240614 -0.041794055195240161 -0.13155932406063245 0.015115218375925714 -0.033560325789363014 0.12019668923225009 -0.059980517973809849 -0.042214993340875757 -0.0066721283800245633 0.04395253764966791 -0.12175161282799085 -0.1267760632194673 -0.038902281499150072 -0.044509029214909908 0.016347627862431196 0.062055033790222473 -0.12720228141877551 -0.1468147457930466 -0.025131257106815342 -0.14469057448825334 0.091788590122775029 -0.013156814941196839 0.027706150757905296 -0.050973708932872723 -0.021797523733908059 0.044747486837196176 -0.040786711809738085 0.14449615080549649 0.095695628588927356 -0.12247124143285733 -0.11339899332580294 0.064826001325802532 0.026991866105743886 -0.09341445941283999 -0.059152758143925149 -0.13212638987854147 0.13393484595449359 0.074076154643081066 -0.12289871565204746 0.1254383905349836 -0.11780051539230701 0.11693813690578932 -0.11870401627520365
leaf_weight=26.787471145391464 5.9714024364948335 2.7007069364190084 3.9052210897207251 7.4401692152023333 5.7197129577398309 5.9226313531398826 7.039484739303588 4.3274809643626204 4.6966507881879798 3.5025375932455045 3.8101123645901671 4.8989092111587516 8.3277414590120298 2.9810961708426493 4.7441188842058173 4.8894320130348206 4.3103593438863781 4.3094454184174529 3.1277771070599547 5.2405294030904761 4.5083700418472281 6.2906880453228968 3.4117757230997112 3.9034159407019606 5.4523614645004255 3.320591613650322 5.189902700483799 4.0758210644125921 6.8067382276058179 3.7932883948087692 4.6392314285039911 4.7297369837760925 4.6896413117647171 4.8894803076982498 4.1883343756198883 3.4433201998472196 4.0405711680650711 3.9216767475008947 5.4388737753033638 5.3481107503175727 3.5795055031776428 5.1490429639816284 2.9753941521048546 4.0647313147783279 3.3605802357196808 3.2322909757494926 3.5477623119950294 2.8631679192185402 4.80443274974823 3.150182768702507 3.7961768954992294
leaf_count=237 30 20 18 35 30 28 36 29 23 19 25 26 39 22 24 23 18 22 22 35 28 37 20 20 37 18 28 22 38 20 25 24 22 22 25 21 25 27 32 32 20 28 19 24 19 21 25 20 38 26 29
internal_value=0 0.0416218 -0.0338608 0.0196362 -0.00892057 0.00994044 0.0504263 0.0467926 -0.0479481 -0.0251791 -0.0248313 -0.0649591 0.0288232 0.0445357 0.0314661 0.0495485 -0.0113015 -0.0384596 -0.0653414 -0.057474 -0.0500956 -0.0347879 -0.0587715 -0.0334032 -0.0619505 -0.0914595 0.0261679 -0.0655375 0.089881 0.0542332 0.0827673 -0.0943524 0.0255179 0.00126646 -0.0896596 0.112063 0.0886553 -0.084353 -0.0853498 0.099685 0.0634223 -0.0912274 -0.103515 -0.110493 0.109448 0.0962041 -0.134461 0.121079 -0.119358 0.118946 -0.120618
internal_weight=0 116.107 141.152 89.3192 78.757 58.9246 34.6743 55.4536 24.2503 19.5537 33.8655 19.8324 41.3915 33.0637 28.7362 23.9921 30.0554 17.4254 62.3945 54.4623 49.2218 34.0202 30.1149 16.9559 13.0525 13.159 12.6301 13.1159 27.6348 10.6 14.2132 8.80556 10.6123 9.77891 9.6407 17.0348 11.0634 15.2016 8.94141 14.0622 7.62008 14.9335 10.6932 9.21377 9.57397 6.21339 6.86835 8.71406 7.93221 5.85089 7.71785
internal_count=1553 733 820 496 422 314 190 322 124 101 174 108 224 185 156 132 149 86 398 338 303 200 182 102 82 80 63 64 154 58 87 46 50 45 62 96 66 103 51 98 45 82 75 52 62 43 43 66 60 46 56
is_linear=0
shrinkage=0.1


Tree=14
num_leaves=50
num_cat=0
split_feature=29 30 13 11 4 13 5 21 7 14 12 24 20 6 23 18 6 11 17 20 14 8 14 0 0 2 4 17 18 8 3 3 14 3 17 0 11 7 9 20 6 3 9 6 4 6 3 3 20
split_gain=30.8505 17.3067 9.93739 11.7082 9.68902 10.3383 9.41985 9.30872 8.10173 9.42293 7.86711 6.95946 7.5044 5.79241 4.09564 4.7824 5.50036 5.89507 4.01803 5.57149 3.65355 3.64123 2.86446 5.17974 2.64415 2.43727 2.20155 2.19733 2.90225 1.83958 3.11319 1.72731 1.64062 1.5854 1.43972 1.28852 1.24444 1.23557 1.71368 0.922381 0.350099 0.347953 0.27097 0.851635 0.210284 0.0707019 0.0677829 0.0159002 0.00796907
threshold=1.0000000180025095e-35 1.0000000180025095e-35 1.0000000180025095e-35 1.0000000180025095e-35 4.5000000000000009 1.0000000180025095e-35 2.5000000000000004 1.0000000180025095e-35 1.5000000000000002 1.0000000180025095e-35 1.0000000180025095e-35 1.0000000180025095e-35 1.0000000180025095e-35 3.5000000000000004 1.0000000180025095e-35 1.0000000180025095e-35 4.5000000000000009 1.0000000180025095e-35 1.0000000180025095e-35 1.0000000180025095e-35 1.0000000180025095e-35 2.5000000000000004 1.0000000180025095e-35 2.5000000000000004 2.5000000000000004 1.0000000180025095e-35 2.5000000000000004 1.0000000180025095e-35 1.0000000180025095e-35 1.5000000000000002 5.5000000000000009 8.5000000000000018 1.0000000180025095e-35 7.5000000000000009 1.0000000180025095e-35 2.5000000000000004 1.0000000180025095e-35 2.5000000000000004 5.5000000000000009 1.0000000180025095e-35 5.5000000000000009 8.5000000000000018 7.5000000000000009 7.5000000000000009 2.5000000000000004 3.5000000000000004 7.5000000000000009 3.5000000000000004 1.0000000180025095e-35
decision_type=2 2 2 2 2 2 2 2 2 2 2 2 2 2 2 2 2 2 2 2 2 2 2 2 2 2 2 2 2 2 2 2 2 2 2 2 2 2 2 2 2 2 2 2 2 2 2 2 2
left_child=1 -1 3 10 5 6 8 11 24 26 46 12 -5 29 15 16 17 -8 19 -18 -12 40 23 -19 41 32 33 28 -11 30 -14 -22 -9 -10 -16 -27 -6 -17 -39 -28 -15 -2 43 -20 -7 -38 47 -3 -47
right_child=4 2 -4 7 36 44 14 25 9 27 20 -13 13 21 34 37 18 22 42 -21 31 -23 -24 -25 -26 35 39 -29 -30 -31 -32 -33 -34 -35 -36 -37 45 38 -40 -41 -42 -43 -44 -45 -46 48 -48 -49 -50
leaf_value=0.11330863489776244 0.13444084536851217 0.11564154520856829 -0.13173023795588076 0.12378016749940364 -0.062172337639708641 -0.10864219162854866 0.11506866205227945 0.016479257834316356 0.05196639727884414 0.032082440848204587 0.095154772747928815 0.12684522653558625 0.082158935792465443 -0.08617038976968483 -0.057403744730997179 -0.11353727367419041 0.049918807310782173 0.096702839874360319 -0.10363375427591021 -0.078173103134971528 0.026388374166175229 0.0046118715726287569 -0.061839032271555128 -0.056105748135737099 0.017906848526518363 -0.054141633598120159 0.10897267119218979 -0.11011380037472702 -0.087857178969370564 0.085119696276925283 -0.043211899008181592 -0.060020462051599922 -0.068942675746618151 -0.037129459106712573 -0.13904704225940248 -0.13213926470156731 -0.14154009337322457 -0.01299911796203441 -0.10127242254727507 0.043243200525023298 -0.12944261254527886 0.094164970404939402 -0.10789875363627088 -0.036094046632032542 -0.13904285475081798 -0.12634221377921631 0.13420329150420685 0.124367971077185 -0.11977240920359451
leaf_weight=24.56721219420433 5.4570239931344968 3.5749938264489156 4.204155556857585 4.707685902714732 3.9444398954510662 4.2542764171957952 5.5081941336393365 4.6487444043159503 4.0122295916080484 3.8412557020783442 4.633804813027381 5.8812512978911391 3.2461253926157969 4.0727012604475004 3.9978091418743116 5.8234243169426909 7.6984549909830093 4.997541666030882 4.4923034980893135 6.0755297467112541 5.0092139542102814 4.9160638973116875 5.6816973388195047 3.9887517094612122 3.6723168492317191 3.6737591847777349 4.9033234864473343 6.1774000674486151 4.2492540329694748 4.4820386543869963 5.0808043256402016 4.2986777722835541 4.3543766885995865 3.9767702296376228 4.6982526928186417 5.0014663562178612 2.8817869648337364 4.7110730186104757 4.1247478574514389 3.7814460024237633 3.4565244391560555 3.5342264622449875 3.9102542847394943 3.1946118697524071 4.8913435563445091 3.7091191485524178 6.6166580691933641 5.019887775182724 3.6762369722127914
leaf_count=237 31 31 22 34 25 28 30 22 25 20 26 33 21 21 27 36 39 29 30 37 28 25 33 23 22 19 28 38 26 25 27 21 19 22 31 29 17 28 28 20 19 20 25 20 30 24 39 35 28
internal_value=0 0.0392026 0.0182472 0.0258738 -0.0317825 -0.0226551 -0.0143437 -0.00190017 0.0220293 -0.0055463 0.0768633 0.0273884 0.00786596 -0.0137418 -0.0373624 -0.0280966 -0.0121075 0.0268611 -0.0430969 -0.00658091 0.0226016 -0.0623284 -0.00626303 0.0288756 0.0894066 -0.0612833 0.0455024 -0.0652028 -0.0309116 0.0334654 0.00566199 -0.0135179 -0.0248352 0.0076162 -0.101513 -0.0991091 -0.109914 -0.0777761 -0.054207 0.0803533 -0.106036 0.118609 -0.086467 -0.0755649 -0.124901 -0.128256 0.126595 0.120738 -0.123072
internal_weight=0 111.446 86.8789 82.6748 135.865 121.654 112.508 53.5215 43.6052 30.9417 29.1532 35.8432 29.9619 25.2543 68.9026 60.2066 45.5473 20.1762 25.3712 13.774 13.9417 12.4453 14.668 8.98629 12.6636 17.6783 16.6738 14.2679 8.09051 12.809 8.32693 9.30789 9.00312 7.989 8.69606 8.67523 14.2116 14.6592 8.83582 8.68477 7.52923 8.99125 11.5972 7.68692 9.14562 10.2671 15.2115 8.59488 7.38536
internal_count=1553 733 496 474 820 726 668 294 252 179 180 205 172 138 416 358 266 115 151 76 75 65 85 52 73 89 95 84 46 73 48 49 41 47 58 48 94 92 56 48 40 51 75 50 58 69 105 66 52
is_linear=0
shrinkage=0.1


Tree=15
num_leaves=54
num_cat=0
split_feature=29 30 2 25 27 26 4 13 5 19 18 17 9 7 3 23 6 3 6 9 14 6 17 6 8 23 13 4 10 20 14 9 9 8 9 6 11 6 9 7 5 4 5 9 7 8 2 20 6 3 0 14 0
split_gain=26.2586 15.9568 9.02842 8.99975 8.83903 9.65568 6.85518 6.3896 6.86587 4.37837 4.84598 6.084 4.19134 4.58782 8.21834 5.29569 4.06345 3.494 3.31137 3.04792 4.46558 2.80721 2.72225 5.02434 2.53706 2.46261 2.3705 2.23771 2.40621 1.9476 1.93832 2.56179 3.1963 1.92494 1.85669 2.19607 1.3427 1.24552 1.18715 0.733502 0.548259 0.360474 0.238956 0.204838 0.186099 0.118732 0.0513736 0.0186255 0.0125036 0.00362595 0.00239278 0.000450164 3.55271e-15
threshold=1.0000000180025095e-35 1.0000000180025095e-35 1.0000000180025095e-35 1.0000000180025095e-35 1.0000000180025095e-35 1.0000000180025095e-35 4.5000000000000009 1.0000000180025095e-35 2.5000000000000004 1.0000000180025095e-35 1.0000000180025095e-35 1.0000000180025095e-35 1.0000000180025095e-35 6.5000000000000009 8.5000000000000018 1.0000000180025095e-35 4.5000000000000009 8.5000000000000018 2.5000000000000004 1.0000000180025095e-35 1.0000000180025095e-35 2.5000000000000004 1.0000000180025095e-35 4.5000000000000009 4.5000000000000009 1.0000000180025095e-35 1.0000000180025095e-35 4.5000000000000009 1.0000000180025095e-35 1.0000000180025095e-35 1.0000000180025095e-35 6.5000000000000009 2.5000000000000004 2.5000000000000004 4.5000000000000009 4.5000000000000009 1.0000000180025095e-35 5.5000000000000009 1.5000000000000002 2.5000000000000004 2.5000000000000004 2.5000000000000004 2.5000000000000004 3.5000000000000004 7.5000000000000009 1.0000000180025095e-35 1.0000000180025095e-35 1.0000000180025095e-35 2.5000000000000004 6.5000000000000009 2.5000000000000004 1.0000000180025095e-35 2.5000000000000004
decision_type=2 2 2 2 2 2 2 2 2 2 2 2 2 2 2 2 2 2 2 2 2 2 2 2 2 2 2 2 2 2 2 2 2 2 2 2 2 2 2 2 2 2 2 2 2 2 2 2 2 2 2 2 2
left_child=1 52 6 4 5 46 7 8 19 10 11 29 36 14 15 39 21 18 -5 41 33 -13 23 -6 42 26 27 28 -4 -10 34 32 38 -21 35 -30 47 -12 -32 -14 -36 -2 -19 -29 -33 -8 48 -7 51 -50 -27 -3 -1
right_child=2 3 25 17 22 12 45 -9 9 -11 37 16 13 -15 -16 -17 -18 24 -20 20 -22 -23 -24 -25 -26 50 -28 43 30 -31 31 44 -34 -35 40 -37 -38 -39 -40 -41 -42 -43 -44 -45 -46 -47 -48 -49 49 -51 -52 -53 -54
leaf_value=0.11188294683292986 0.120733673743109 0.11539548021114682 -0.10652180785331643 0.064227316969794418 0.062520386283067816 0.12662859219290964 -0.12028696529320596 -0.12019540766765591 0.11379795948293683 -0.10806376230234478 -0.10213913717402284 -0.038604732640378975 0.08935339434836724 0.076234549558800838 -0.14946943655523132 -0.082170783551848578 -0.09102364167227453 -0.13017723075787271 -0.037335388795607292 0.033660567402169828 -0.032503101279059102 0.078306470121068852 -0.10003607337462717 -0.089079438241550915 -0.016466875476678876 -0.11817327968749412 -0.12123960873977968 -0.084010385440401902 0.0084119774082673376 0.028574219266591119 -0.031684234770107483 -0.085053011032347803 0.027380209740967627 0.12225202049631397 0.053716133028857249 -0.094389180800811157 0.035987720259837257 -0.023211311091434303 -0.11886121638332266 0.028021303241434425 0.0037540216681904736 0.079480449359418587 -0.093192691358151669 -0.12168120283589244 -0.12010526810747778 -0.092864128058185683 0.13402471166200344 0.11427283913429145 0.11983368802710299 0.124426176770049 -0.1143588140953845 0.11715915989097087 0.1118829468329299
leaf_weight=12.815341874957086 3.9397293627262133 3.4742641821503621 4.3978717774152747 5.2295765131711986 5.0988677591085416 2.4388838335871723 3.1134902462363234 3.9930784478783599 5.7738307267427444 4.6489794626831999 4.9740996360778791 4.1661573350429517 4.4970587790012377 6.1430525183677664 3.9970302283763877 3.6942457854747772 5.6700104549527177 3.3601861298084241 8.3138237148523313 6.1767109632492083 7.5544755905866614 4.0507562756538391 4.2090499848127356 3.8270025625824928 4.7851723656058311 2.7461984083056441 4.4964043870568267 2.8159374669194213 4.6442585512995738 5.0067787021398544 3.1741535589098948 2.8390895724296561 6.0502072870731354 4.0679386928677559 4.292347773909567 3.7607177495956421 3.0640226677060127 3.343158558011055 3.0757111757993698 3.4427720457315445 4.4979111775755882 4.5811897963285446 3.6386593952775002 2.9615226164460182 3.246841199696064 3.2032155618071556 2.9979867637157431 2.4412320405244827 3.1089863330125809 3.8458754271268845 4.0992569252848625 2.4804357811808586 9.6827027499675733
leaf_count=135 22 31 32 24 25 17 18 22 31 25 28 19 30 31 18 16 37 18 39 38 37 22 24 23 26 22 35 21 27 30 21 22 36 23 22 27 22 21 24 17 24 27 23 22 25 22 17 23 25 26 38 21 102
internal_value=0 0.0370801 -0.0297222 0.0170664 0.0385447 0.0593545 -0.00673452 0.00252913 0.0101917 -0.0172095 -0.00440422 0.0178525 0.0256974 0.00301359 -0.0257624 0.0167387 -0.0259048 -0.0327641 0.00188149 0.0493713 0.0258261 0.0190299 -0.0337407 -0.00247864 -0.0725825 -0.0596205 -0.0519556 -0.0451472 -0.0367405 0.074218 -0.0281155 -0.0506871 -0.0244305 0.0688384 -0.00398076 -0.0375853 0.0878718 -0.0704137 -0.0745862 0.0627593 0.0281509 0.0985543 -0.110949 -0.10332 -0.103753 -0.106381 0.122232 0.120448 0.119494 0.122373 -0.115889 0.11613 0.111883
internal_weight=0 106.586 131.362 84.0882 58.7608 45.6258 74.2636 67.9469 63.9538 37.6338 32.9848 24.6675 29.7183 21.7742 15.6311 11.6341 13.8869 25.3274 13.5434 26.32 17.7991 8.21691 13.1349 8.92587 11.784 57.0984 50.253 45.7566 39.9791 10.7806 35.5812 18.386 12.3001 10.2446 17.1952 8.40498 7.94414 8.31726 6.24986 7.93983 8.79026 8.52092 6.99885 5.77746 6.08593 6.31671 15.9075 4.88012 12.9096 6.95486 6.84546 5.9547 22.498
internal_count=1553 733 820 496 366 294 422 382 360 213 188 139 174 112 81 63 78 130 63 147 98 41 72 48 67 398 338 303 260 61 228 128 81 61 100 54 62 49 45 47 46 49 41 43 47 40 120 40 103 51 60 52 237
is_linear=0
shrinkage=0.1


Tree=16
num_leaves=52
num_cat=0
split_feature=29 30 13 11 3 12 21 4 13 24 20 16 14 15 17 6 5 17 18 19 3 7 14 11 24 5 6 21 5 2 0 6 14 0 0 14 14 6 8 6 3 20 2 3 2 2 3 14 20 0 3
split_gain=22.3789 14.7001 8.08035 9.32278 8.03663 6.83217 6.72259 6.24459 6.90173 5.8207 6.26731 5.56869 7.58773 16.8517 4.61132 8.92544 3.76971 3.76583 5.49812 3.6529 4.64234 4.06896 3.06058 3.01144 2.59319 2.36827 4.15939 2.29798 3.57299 2.10591 1.91865 1.95257 1.65105 1.44703 1.27502 1.27216 1.19377 1.05457 0.87566 0.698451 0.24852 0.215288 0.0723203 0.0420689 0.0389634 0.0262063 0.0107032 0.00760207 0.00215937 0.000490531 3.55271e-15
threshold=1.0000000180025095e-35 1.0000000180025095e-35 1.0000000180025095e-35 1.0000000180025095e-35 2.5000000000000004 1.0000000180025095e-35 1.0000000180025095e-35 4.5000000000000009 1.0000000180025095e-35 1.0000000180025095e-35 1.0000000180025095e-35 1.0000000180025095e-35 1.0000000180025095e-35 1.0000000180025095e-35 1.0000000180025095e-35 3.5000000000000004 2.5000000000000004 1.0000000180025095e-35 1.0000000180025095e-35 1.0000000180025095e-35 15.500000000000002 7.5000000000000009 1.0000000180025095e-35 1.0000000180025095e-35 1.0000000180025095e-35 2.5000000000000004 3.5000000000000004 1.0000000180025095e-35 2.5000000000000004 1.0000000180025095e-35 1.5000000000000002 8.5000000000000018 1.0000000180025095e-35 2.5000000000000004 2.5000000000000004 1.0000000180025095e-35 1.0000000180025095e-35 4.5000000000000009 1.5000000000000002 3.5000000000000004 7.5000000000000009 1.0000000180025095e-35 1.0000000180025095e-35 7.5000000000000009 1.0000000180025095e-35 1.0000000180025095e-35 3.5000000000000004 1.0000000180025095e-35 1.0000000180025095e-35 2.5000000000000004 5.5000000000000009
decision_type=2 2 2 2 2 2 2 2 2 2 2 2 2 2 2 2 2 2 2 2 2 2 2 2 2 2 2 2 2 2 2 2 2 2 2 2 2 2 2 2 2 2 2 2 2 2 2 2 2 2 2
left_child=1 50 3 5 16 43 9 8 11 10 -5 12 13 41 15 38 35 18 27 20 21 25 -7 -19 42 -15 -27 28 -14 36 -20 39 -18 -24 -31 -2 -8 -21 -12 -32 -9 -6 -25 46 -41 -10 -3 -42 -44 -49 -1
right_child=4 2 -4 6 7 22 29 40 45 -11 14 -13 17 19 -16 -17 32 23 30 37 -22 -23 33 24 -26 26 -28 -29 -30 34 31 -33 -34 -35 -36 -37 -38 -39 -40 44 47 -43 48 -45 -46 -47 -48 49 -50 -51 -52
leaf_value=0.11062512507547431 0.12513050191249961 0.11246556728289095 -0.12378942391153375 0.11943694693921846 0.1631394121881716 0.08915272189680544 0.015872469016533108 -0.085643307756383985 -0.13149654712727096 0.11760339776265027 0.053439085037004376 -0.14714911391061489 0.11225498806024224 0.062883238732113253 -0.081102355059990375 -0.06983326074739625 0.031536535255716001 -0.016219481542841894 0.0056593065559695892 -0.03042717030304929 -0.09298925162914938 0.11874317005238594 0.032377285628223076 -0.13306258679176555 -0.030764434810985775 0.053485773259354046 -0.088814054913856647 -0.028445977915451278 -0.016654910162530304 -0.045182040298935924 -0.064325984398729191 -0.015655720292642186 -0.059332472826487362 -0.048522715452193631 -0.12528459581972351 0.048035072593967346 -0.057665406755210258 -0.094552831983706009 0.11523416212450631 -0.13262345842833764 -0.12364966181210467 0.13011532440949983 -0.11893134749007617 0.12841628180956208 -0.11628345312462057 -0.11929696638890508 0.12022270439906316 -0.11819216766582485 -0.11497904473098829 -0.11615202058141372 0.11062512507547435
leaf_weight=7.8139212727546719 3.8900452703237534 3.0054326355457306 3.9347614273428908 4.1171005740761784 3.733178347349166 4.3816138803958884 4.5583283230662364 2.9639486074447614 3.286414071917533 5.526485599577426 6.0421828478574806 3.4513090252876273 5.0002990141510946 4.2525084242224738 7.1986545994877806 7.2197727560997 4.1248848959803581 6.0830074623227128 3.4113208577036866 4.6074328422546404 3.7981157377362242 3.9107462093234053 3.9575839191675186 5.4017917588353139 4.0013101845979699 3.5577354207634926 4.860177256166935 4.9403085261583337 3.7720696479082108 3.5225134268403036 2.9136990383267385 3.4679627269506446 3.8807071372866631 5.0096618086099625 4.5588595494627953 4.7585537433624268 4.2803873419761658 5.7839795053005219 3.6957233101129532 2.8538632169365883 2.9961086213588715 4.1892853900790215 2.5807626694440842 5.8501433208584785 2.9864602759480476 3.7931671887636185 4.3579388335347176 2.4464122876524925 2.9770065024495125 2.2740361243486404 12.762738078832625
leaf_count=90 34 31 22 34 19 26 22 23 20 33 40 19 28 26 36 39 27 39 21 26 20 21 22 33 25 20 32 28 24 19 21 22 22 27 29 24 19 34 23 18 21 26 21 39 26 32 35 20 28 20 147
internal_value=0 0.0351271 0.0159994 0.0231166 -0.0278117 0.0711108 -0.00201826 -0.0375888 -0.0297974 0.0237403 0.00539334 -0.0225168 -0.0176882 0.0156171 -0.0140438 0.0144231 0.0369381 -0.0432625 -0.0201127 -0.0178691 0.0067342 0.0295771 0.0206524 -0.0755452 -0.0996667 0.00205579 -0.0286726 0.0261038 0.0568245 -0.0534742 -0.0606512 -0.0791594 -0.0125122 -0.0128185 -0.0903694 0.0827118 -0.0197402 -0.0661203 0.0768915 -0.104317 -0.110256 0.145677 -0.124823 0.122086 -0.124268 -0.12496 0.117057 -0.11971 -0.116814 -0.117209 0.110625
internal_weight=0 101.794 81.2171 77.2824 126.949 26.5624 50.72 110.294 99.6139 33.7999 28.2734 92.5343 89.083 38.6932 24.1563 16.9577 16.6542 50.3899 29.346 30.7707 20.3793 16.5812 13.3489 21.0439 14.9609 12.6704 8.41791 13.7127 8.77237 16.9201 15.6333 12.222 8.00559 8.96725 8.08137 8.6486 8.83872 10.3914 9.73791 8.75402 10.6805 7.92246 10.9596 13.2135 5.84032 7.07958 7.36337 7.71656 5.55777 4.72045 20.5767
internal_count=1553 733 496 474 820 180 294 713 629 205 172 577 558 224 138 102 107 334 188 179 119 99 75 146 107 78 52 80 52 89 108 87 49 49 48 58 41 60 63 65 84 45 82 105 44 52 66 61 49 40 237
is_linear=0
shrinkage=0.1


Tree=17
num_leaves=58
num_cat=0
split_feature=2 29 30 13 4 3 0 11 12 18 17 19 4 6 3 0 14 23 5 6 29 3 25 26 3 7 8 6 7 3 8 9 3 7 3 4 8 0 8 8 25 3 8 6 23 3 8 7 30 3 9 3 18 5 20 0 3
split_gain=19.6767 12.1862 6.1592 5.8491 5.36978 5.5276 5.47041 5.32293 8.47788 4.25047 4.91148 4.47493 4.19767 4.14736 3.52099 3.74253 3.74222 3.40076 3.48194 3.25519 3.17281 2.71288 2.68291 6.50745 3.1516 2.9715 3.60425 2.2719 1.75471 1.7139 1.5925 1.58884 1.25795 1.98257 1.14928 0.944604 0.898556 0.861111 0.767326 0.653539 0.453478 0.361728 0.312886 0.263729 0.198662 0.184221 0.113208 0.10471 0.0655866 0.0512486 0.0243227 0.024319 0.0141264 0.00322726 0.00025857 3.55271e-15 1.77636e-15
threshold=1.0000000180025095e-35 1.0000000180025095e-35 1.0000000180025095e-35 1.0000000180025095e-35 4.5000000000000009 19.500000000000004 3.5000000000000004 1.0000000180025095e-35 1.0000000180025095e-35 1.0000000180025095e-35 1.0000000180025095e-35 1.0000000180025095e-35 3.5000000000000004 1.5000000000000002 10.500000000000002 1.5000000000000002 1.0000000180025095e-35 1.0000000180025095e-35 2.5000000000000004 7.5000000000000009 1.0000000180025095e-35 5.5000000000000009 1.0000000180025095e-35 1.0000000180025095e-35 10.500000000000002 6.5000000000000009 1.0000000180025095e-35 3.5000000000000004 1.5000000000000002 9.5000000000000018 1.0000000180025095e-35 2.5000000000000004 4.5000000000000009 2.5000000000000004 13.500000000000002 2.5000000000000004 1.0000000180025095e-35 2.5000000000000004 4.5000000000000009 1.5000000000000002 1.0000000180025095e-35 14.500000000000002 5.5000000000000009 4.5000000000000009 1.0000000180025095e-35 7.5000000000000009 1.0000000180025095e-35 2.5000000000000004 1.0000000180025095e-35 2.5000000000000004 2.5000000000000004 15.500000000000002 1.0000000180025095e-35 2.5000000000000004 1.0000000180025095e-35 1.5000000000000002 2.5000000000000004
decision_type=2 2 2 2 2 2 2 2 2 2 2 2 2 2 2 2 2 2 2 2 2 2 2 2 2 2 2 2 2 2 2 2 2 2 2 2 2 2 2 2 2 2 2 2 2 2 2 2 2 2 2 2 2 2 2 2 2
left_child=1 2 55 7 5 6 9 8 51 10 11 30 14 34 15 28 37 18 36 -11 -10 -8 23 45 25 26 -25 -22 -9 -12 35 -23 -20 -34 44 -3 -17 -16 -7 -30 -29 48 50 -32 49 53 -6 -5 52 54 -18 -2 -14 -15 -4 -1 -57
right_child=3 4 13 47 46 38 21 12 20 19 29 -13 41 22 16 17 42 -19 32 -21 27 31 -24 24 -26 -27 -28 40 39 -31 43 -33 33 -35 -36 -37 -38 -39 -40 -41 -42 -43 -44 -45 -46 -47 -48 -49 -50 -51 -52 -53 -54 -55 -56 56 -58
